<?xml version="1.0"?>
<opencv_storage>
<opencv_ml_ann_mlp>
  <format>3</format>
  <layer_sizes>
    120 40 65</layer_sizes>
  <activation_function>SIGMOID_SYM</activation_function>
  <f_param1>1.</f_param1>
  <f_param2>1.</f_param2>
  <min_val>-9.4999999999999996e-001</min_val>
  <max_val>9.4999999999999996e-001</max_val>
  <min_val1>-9.7999999999999998e-001</min_val1>
  <max_val1>9.7999999999999998e-001</max_val1>
  <training_params>
    <train_method>BACKPROP</train_method>
    <dw_scale>1.0000000000000001e-001</dw_scale>
    <moment_scale>1.0000000000000001e-001</moment_scale>
    <term_criteria>
      <epsilon>1.0000000000000000e-002</epsilon>
      <iterations>1000</iterations></term_criteria></training_params>
  <input_scale>
    5.0386099299692752e+001 -4.9930387650345631e-002
    4.5506499708433905e+000 -4.0706742620434871e-001
    2.9833892754744875e+000 -1.8497728989448683e+000
    3.8251724782550363e+000 -3.2222773740956088e+000
    4.2074302992843755e+000 -3.0828597620399716e+000
    4.3043297536932865e+000 -3.4711930622301868e+000
    4.0178937973472726e+000 -3.3422101059056701e+000
    3.0217206796443112e+000 -1.3938622503062510e+000
    7.2763133509077917e+000 -2.7547975000117209e-001
    7.7839067088111520e+001 -2.4844196527586380e-002
    4.5140484191342658e+000 -3.3849836985680235e+000
    4.5144488378790584e+000 -3.6775803904948301e+000
    4.5204563606633492e+000 -3.0379697791695484e+000
    4.4056476636107673e+000 -3.1239467678007911e+000
    4.6743100757534295e+000 -3.6473444237323251e+000
    4.5617170278972274e+000 -3.4992859146960744e+000
    4.2367623234976985e+000 -2.8337611221752170e+000
    4.5291717363498636e+000 -3.2251012615123757e+000
    4.3894097395864033e+000 -3.5785538960216972e+000
    4.3139927163096452e+000 -2.9976059836979800e+000
    1.0581521010487045e+000 -3.5254229945598355e-002
    4.8275945619074001e-002 -2.2691910857378611e-001
    1.3026893134262800e-002 -7.8344824790281953e-001
    1.0886657467410830e-002 -1.4867338981913893e+000
    1.0292863059041032e-002 -1.6863040598620611e+000
    1.1473981771757591e-002 -1.9720014548284479e+000
    1.1352611818056505e-002 -1.4879901695818221e+000
    1.6470382109612883e-002 -5.8869302596995676e-001
    7.4921492560043434e-002 -1.3180288630971781e-001
    5.0779428640125612e-001 -1.9186420177339927e-002
    6.8174452619535431e-001 -3.1722818876195297e-002
    3.7341602038680380e-002 -2.7342911997823155e-001
    1.1483139588140349e-002 -1.0593135712492467e+000
    1.0967828270267769e-002 -1.7517039848753948e+000
    1.1549694142906455e-002 -1.4024802626528070e+000
    1.2152162436149083e-002 -1.7648463818526001e+000
    1.0652916085364282e-002 -1.7768975465382320e+000
    1.3663609189500141e-002 -7.9197222158726110e-001
    5.8215428908515943e-002 -1.6257917244441172e-001
    5.6563703500280027e-001 -1.9231238068093719e-002
    6.5691680479955328e-001 -2.5880516878503308e-002
    3.3162861151583185e-002 -2.8689022878348142e-001
    1.0551594593500916e-002 -1.0104673876722337e+000
    1.1126240165184246e-002 -1.4648753405916062e+000
    9.8788277985490565e-003 -8.5444076544244130e-001
    1.0016917898793644e-002 -9.8114337361148296e-001
    1.0131953418459429e-002 -1.4072471132722302e+000
    1.2236899152485091e-002 -7.7080772872161951e-001
    5.0922859363693306e-002 -1.7915254623515503e-001
    7.3190640904479909e-001 -1.7800428858764192e-002
    6.0528007402813211e-001 -2.8803190022309053e-002
    3.3337893574973937e-002 -2.8774875395562716e-001
    1.0592505596046329e-002 -1.0301011250772327e+000
    1.0903989925202565e-002 -1.5565063390015486e+000
    9.8984301429640240e-003 -1.0520063592747648e+000
    1.0414522882422032e-002 -1.1814732804366133e+000
    1.0016565715247470e-002 -1.3286833351638263e+000
    1.2541361924085876e-002 -7.1221599152099824e-001
    5.4470617219623256e-002 -1.7180650441811682e-001
    7.0253676332426296e-001 -1.6824617858491469e-002
    7.9996296612377904e-001 -2.6949987008637051e-002
    3.7607602813373456e-002 -2.5601775770550950e-001
    1.1012528915664083e-002 -9.3500114671830103e-001
    1.0188351099686452e-002 -1.6099649095432003e+000
    1.0656890789972650e-002 -1.6730544960270446e+000
    1.1585469854679337e-002 -2.0375109512631018e+000
    1.1280050345018180e-002 -1.7691406171936117e+000
    1.3660139427119779e-002 -6.7150119812962228e-001
    6.5293469302550367e-002 -1.5279028301801045e-001
    5.8528873848131313e-001 -1.6485983823707417e-002
    4.9419373359479057e-001 -3.2132710808247957e-002
    3.7286847358236203e-002 -2.4682930590530636e-001
    1.1139041402380276e-002 -8.9398858490752520e-001
    1.0446221689497990e-002 -1.4927895779514035e+000
    1.1109155135540887e-002 -1.3672104357194410e+000
    1.1182922695769437e-002 -1.6905570730793757e+000
    1.0908903082114233e-002 -1.7914147446169189e+000
    1.3021026891635720e-002 -7.5294221297163300e-001
    6.3806645934288961e-002 -1.6422749141233264e-001
    4.9708372522778382e-001 -1.6283670859924920e-002
    2.9935812373825188e-001 -3.6551482039761739e-002
    3.3437739771152254e-002 -2.6981712586152512e-001
    1.0606288911923967e-002 -9.5049470851948581e-001
    1.0317718198079553e-002 -1.2816471359430688e+000
    1.0996253495072954e-002 -8.1887976820043507e-001
    1.0547546992265176e-002 -1.0516980177523354e+000
    1.0445333456972810e-002 -1.5727290640725280e+000
    1.1914862252624515e-002 -8.1158042097807692e-001
    5.3358055852776323e-002 -1.8847794713500232e-001
    4.6700076274488150e-001 -1.7500214710132054e-002
    2.8512300294735188e-001 -3.8227497789380033e-002
    3.0432535218582895e-002 -2.9695795223404148e-001
    1.0741024096066686e-002 -1.1444535184785922e+000
    1.1015290736875884e-002 -1.5665201836475828e+000
    1.0737369612696057e-002 -9.0591210072184292e-001
    9.8421551121707137e-003 -1.0165582080573266e+000
    1.0172183628719600e-002 -1.5188241492385826e+000
    1.1777841131077965e-002 -8.4704584896931878e-001
    5.2696095560440262e-002 -1.9519918013625051e-001
    4.4631582060408176e-001 -1.5506691868611849e-002
    2.8953178492548881e-001 -3.8082105971090477e-002
    3.4141204835186338e-002 -2.8226121418989669e-001
    1.1339054570455118e-002 -1.1453113443609846e+000
    1.1024935684804870e-002 -1.8269723394226980e+000
    1.2010108104349724e-002 -1.4764743160952414e+000
    1.2954487030848318e-002 -1.7509213299852997e+000
    9.9072545273332438e-003 -1.5604817152361787e+000
    1.3584645926518505e-002 -8.0517303877919999e-001
    6.4652536672136510e-002 -1.7249367381262479e-001
    3.8125461573395913e-001 -1.6699699634456826e-002
    3.2757751213822939e-001 -3.4082856921194359e-002
    4.5662030217407307e-002 -2.1956473060799842e-001
    1.3333226550485491e-002 -7.5065536054677395e-001
    1.1212492217760640e-002 -1.4427537665911236e+000
    9.9031620913663122e-003 -1.4983469498245778e+000
    1.0100946412296434e-002 -1.4078875584611377e+000
    1.1226038584675304e-002 -1.2208592074697213e+000
    1.6312436660457608e-002 -5.5974995925627091e-001
    7.9416705561919876e-002 -1.3943007407812438e-001
    3.6515532776068743e-001 -1.8327997279960050e-002</input_scale>
  <output_scale>
    5.2631578947368418e-001 4.9999999999999994e-001
    5.2631578947368418e-001 4.9999999999999994e-001
    5.2631578947368418e-001 4.9999999999999994e-001
    5.2631578947368418e-001 4.9999999999999994e-001
    5.2631578947368418e-001 4.9999999999999994e-001
    5.2631578947368418e-001 4.9999999999999994e-001
    5.2631578947368418e-001 4.9999999999999994e-001
    5.2631578947368418e-001 4.9999999999999994e-001
    5.2631578947368418e-001 4.9999999999999994e-001
    5.2631578947368418e-001 4.9999999999999994e-001
    5.2631578947368418e-001 4.9999999999999994e-001
    5.2631578947368418e-001 4.9999999999999994e-001
    5.2631578947368418e-001 4.9999999999999994e-001
    5.2631578947368418e-001 4.9999999999999994e-001
    5.2631578947368418e-001 4.9999999999999994e-001
    5.2631578947368418e-001 4.9999999999999994e-001
    5.2631578947368418e-001 4.9999999999999994e-001
    5.2631578947368418e-001 4.9999999999999994e-001
    5.2631578947368418e-001 4.9999999999999994e-001
    5.2631578947368418e-001 4.9999999999999994e-001
    5.2631578947368418e-001 4.9999999999999994e-001
    5.2631578947368418e-001 4.9999999999999994e-001
    5.2631578947368418e-001 4.9999999999999994e-001
    5.2631578947368418e-001 4.9999999999999994e-001
    5.2631578947368418e-001 4.9999999999999994e-001
    5.2631578947368418e-001 4.9999999999999994e-001
    5.2631578947368418e-001 4.9999999999999994e-001
    5.2631578947368418e-001 4.9999999999999994e-001
    5.2631578947368418e-001 4.9999999999999994e-001
    5.2631578947368418e-001 4.9999999999999994e-001
    5.2631578947368418e-001 4.9999999999999994e-001
    5.2631578947368418e-001 4.9999999999999994e-001
    5.2631578947368418e-001 4.9999999999999994e-001
    5.2631578947368418e-001 4.9999999999999994e-001
    5.2631578947368418e-001 4.9999999999999994e-001
    5.2631578947368418e-001 4.9999999999999994e-001
    5.2631578947368418e-001 4.9999999999999994e-001
    5.2631578947368418e-001 4.9999999999999994e-001
    5.2631578947368418e-001 4.9999999999999994e-001
    5.2631578947368418e-001 4.9999999999999994e-001
    5.2631578947368418e-001 4.9999999999999994e-001
    5.2631578947368418e-001 4.9999999999999994e-001
    5.2631578947368418e-001 4.9999999999999994e-001
    5.2631578947368418e-001 4.9999999999999994e-001
    5.2631578947368418e-001 4.9999999999999994e-001
    5.2631578947368418e-001 4.9999999999999994e-001
    5.2631578947368418e-001 4.9999999999999994e-001
    5.2631578947368418e-001 4.9999999999999994e-001
    5.2631578947368418e-001 4.9999999999999994e-001
    5.2631578947368418e-001 4.9999999999999994e-001
    5.2631578947368418e-001 4.9999999999999994e-001
    5.2631578947368418e-001 4.9999999999999994e-001
    5.2631578947368418e-001 4.9999999999999994e-001
    5.2631578947368418e-001 4.9999999999999994e-001
    5.2631578947368418e-001 4.9999999999999994e-001
    5.2631578947368418e-001 4.9999999999999994e-001
    5.2631578947368418e-001 4.9999999999999994e-001
    5.2631578947368418e-001 4.9999999999999994e-001
    5.2631578947368418e-001 4.9999999999999994e-001
    5.2631578947368418e-001 4.9999999999999994e-001
    5.2631578947368418e-001 4.9999999999999994e-001
    5.2631578947368418e-001 4.9999999999999994e-001
    5.2631578947368418e-001 4.9999999999999994e-001
    5.2631578947368418e-001 4.9999999999999994e-001
    5.2631578947368418e-001 4.9999999999999994e-001</output_scale>
  <inv_output_scale>
    1.8999999999999999e+000 -9.4999999999999996e-001
    1.8999999999999999e+000 -9.4999999999999996e-001
    1.8999999999999999e+000 -9.4999999999999996e-001
    1.8999999999999999e+000 -9.4999999999999996e-001
    1.8999999999999999e+000 -9.4999999999999996e-001
    1.8999999999999999e+000 -9.4999999999999996e-001
    1.8999999999999999e+000 -9.4999999999999996e-001
    1.8999999999999999e+000 -9.4999999999999996e-001
    1.8999999999999999e+000 -9.4999999999999996e-001
    1.8999999999999999e+000 -9.4999999999999996e-001
    1.8999999999999999e+000 -9.4999999999999996e-001
    1.8999999999999999e+000 -9.4999999999999996e-001
    1.8999999999999999e+000 -9.4999999999999996e-001
    1.8999999999999999e+000 -9.4999999999999996e-001
    1.8999999999999999e+000 -9.4999999999999996e-001
    1.8999999999999999e+000 -9.4999999999999996e-001
    1.8999999999999999e+000 -9.4999999999999996e-001
    1.8999999999999999e+000 -9.4999999999999996e-001
    1.8999999999999999e+000 -9.4999999999999996e-001
    1.8999999999999999e+000 -9.4999999999999996e-001
    1.8999999999999999e+000 -9.4999999999999996e-001
    1.8999999999999999e+000 -9.4999999999999996e-001
    1.8999999999999999e+000 -9.4999999999999996e-001
    1.8999999999999999e+000 -9.4999999999999996e-001
    1.8999999999999999e+000 -9.4999999999999996e-001
    1.8999999999999999e+000 -9.4999999999999996e-001
    1.8999999999999999e+000 -9.4999999999999996e-001
    1.8999999999999999e+000 -9.4999999999999996e-001
    1.8999999999999999e+000 -9.4999999999999996e-001
    1.8999999999999999e+000 -9.4999999999999996e-001
    1.8999999999999999e+000 -9.4999999999999996e-001
    1.8999999999999999e+000 -9.4999999999999996e-001
    1.8999999999999999e+000 -9.4999999999999996e-001
    1.8999999999999999e+000 -9.4999999999999996e-001
    1.8999999999999999e+000 -9.4999999999999996e-001
    1.8999999999999999e+000 -9.4999999999999996e-001
    1.8999999999999999e+000 -9.4999999999999996e-001
    1.8999999999999999e+000 -9.4999999999999996e-001
    1.8999999999999999e+000 -9.4999999999999996e-001
    1.8999999999999999e+000 -9.4999999999999996e-001
    1.8999999999999999e+000 -9.4999999999999996e-001
    1.8999999999999999e+000 -9.4999999999999996e-001
    1.8999999999999999e+000 -9.4999999999999996e-001
    1.8999999999999999e+000 -9.4999999999999996e-001
    1.8999999999999999e+000 -9.4999999999999996e-001
    1.8999999999999999e+000 -9.4999999999999996e-001
    1.8999999999999999e+000 -9.4999999999999996e-001
    1.8999999999999999e+000 -9.4999999999999996e-001
    1.8999999999999999e+000 -9.4999999999999996e-001
    1.8999999999999999e+000 -9.4999999999999996e-001
    1.8999999999999999e+000 -9.4999999999999996e-001
    1.8999999999999999e+000 -9.4999999999999996e-001
    1.8999999999999999e+000 -9.4999999999999996e-001
    1.8999999999999999e+000 -9.4999999999999996e-001
    1.8999999999999999e+000 -9.4999999999999996e-001
    1.8999999999999999e+000 -9.4999999999999996e-001
    1.8999999999999999e+000 -9.4999999999999996e-001
    1.8999999999999999e+000 -9.4999999999999996e-001
    1.8999999999999999e+000 -9.4999999999999996e-001
    1.8999999999999999e+000 -9.4999999999999996e-001
    1.8999999999999999e+000 -9.4999999999999996e-001
    1.8999999999999999e+000 -9.4999999999999996e-001
    1.8999999999999999e+000 -9.4999999999999996e-001
    1.8999999999999999e+000 -9.4999999999999996e-001
    1.8999999999999999e+000 -9.4999999999999996e-001</inv_output_scale>
  <weights>
    <_>
      6.3838093164103243e-002 -9.2622933483505665e-001
      1.3836317365187309e-001 -4.4115238654299177e-001
      2.6789770902778287e-001 9.3959426861619566e-001
      9.5079866785249045e-002 -5.2170629992249773e-001
      -1.5207259108982119e-001 -6.5002901319784068e-001
      1.7830938259268678e+000 6.3545478255756807e-002
      -2.0262864610256885e-002 6.4897318354319256e-001
      1.2973236431523734e+000 -8.3241288544040060e-001
      4.5846523503929865e-001 1.4135326296591018e+000
      6.5422624684591346e-001 -8.4796897470872146e-001
      1.8050510003572412e-001 3.3398173421828423e-002
      6.2777972322188791e-002 5.2970932044722530e-001
      -4.0095801330650209e-002 1.2016034074156534e+000
      1.8142187718990696e-001 1.2300609716772883e+000
      4.2490641009971136e-001 5.1349507005443928e-001
      3.0831413507575578e-001 5.5501076694029212e-002
      -1.0506067802754855e+000 4.7870954854691233e-001
      1.0436835785386174e-001 -4.2400320828770344e-001
      4.4638860904860744e-001 -1.4729763864063237e+000
      -8.0228270283353909e-001 -5.3625734840898820e-001
      -6.4727909838792541e-001 3.9184280571897251e-001
      2.9182262936523129e-001 -2.1631128963561067e-001
      1.5672012878985905e-001 5.3504254801158564e-002
      -5.0157301639493723e-002 1.3541072078839364e-001
      9.6135715906377384e-001 4.4689291243715040e-001
      -1.7988046595754756e-001 2.2607853078599065e-002
      2.9624343176585254e-002 4.6331161158649395e-002
      1.0189970540949144e-002 2.1310448476055399e-001
      -9.7626800836341465e-001 -5.4092131374941572e-002
      -5.3336409710337207e-001 -7.7784906405229948e-002
      9.3544478075448745e-002 3.6274998746198217e-001
      3.3564162618946798e-002 -5.4694075633400126e-002
      -5.8913685362504764e-001 1.1441609739105656e-001
      1.3842359465866438e-001 -1.2816295021076876e-001
      -6.1564715770168932e-001 -2.1152322121947847e-001
      -6.7807043756533698e-003 5.8721530476678496e-001
      -4.8506807387185491e-001 3.1489857696470347e-001
      -1.0577571327979340e-001 1.6650527650730054e-001
      -5.3336159331613653e-001 2.7246692514260573e-001
      -4.5034275967237046e-002 6.1568840071487684e-004
      3.5653096659255873e-001 3.2613912516676100e-002
      -2.2601550912808209e-002 -3.0672553819755777e-001
      2.2716929161672345e-001 -1.3006159097646113e+000
      -8.8064754973561060e-005 -3.5592578021902382e-001
      5.2643579521436157e-001 -6.6698940766527659e-001
      5.6175092616784028e-001 4.6650613740003027e-001
      5.4919912305131269e-001 -3.5599408735952420e-001
      -6.3458014297492182e-001 -2.4010245434353292e-001
      5.2690337958111622e-001 -1.4543080913444520e-001
      -7.2234316994638825e-001 -1.6522808757469520e-001
      6.6077204532409006e-002 5.6343427341848429e-001
      -5.1863943234564347e-001 4.1094080725627891e-001
      -6.7752535759701138e-001 -2.8201441148007722e-001
      5.8397768334937539e-001 2.2503317128777277e-003
      4.4203632499577213e-003 -4.1478258665195400e-001
      -6.2768308048808300e-002 4.0890920117078433e-001
      3.5000129688750042e-001 4.7381851875094549e-001
      -3.6896902067182274e-001 1.8617055806569538e-001
      5.0531909159957436e-002 2.5449676026388734e-001
      7.9644667773169212e-002 4.3251356669634849e-001
      1.1856607622524465e-001 3.3047412070002738e-002
      6.7785719500578889e-001 -5.1417001304108745e-001
      9.2134322076203284e-002 -7.7684204241667221e-001
      -8.3342692642300972e-002 -5.1680396127356576e-001
      1.4082538217278062e+000 -3.4097230803151990e-001
      6.5405157759223742e-001 -4.0780503278120700e-001
      5.5736221029342081e-001 -4.2746850100513079e-001
      -1.6785087945116367e-001 -9.3888591906180241e-001
      9.1987735694977091e-001 -2.5874857893022563e-001
      4.0963363180209059e-002 5.6564035583990113e-001
      1.1691148139221543e+000 -1.6852812662318728e-001
      -8.7417283937972534e-001 -3.4631288013646383e-001
      1.0783833682735570e-001 -8.8621047670557535e-002
      7.4077638267374146e-001 6.9864170857488550e-001
      -8.6662047493042893e-001 6.5495130141144975e-001
      -3.1881534829652625e-001 8.5035551562984102e-001
      -2.4397001833599929e-001 -8.0120762408472779e-001
      -5.7014761978380124e-001 -1.9177371831280079e-001
      2.6580360529483738e-001 1.3011712962239769e-001
      -2.7679163658895611e-001 -6.3362639416651645e-001
      -3.8709575267478463e-001 7.1025994747521382e-001
      -3.5789201670559612e-001 -6.5583071876843013e-001
      -5.8772165612967553e-001 -1.6354501130771493e-001
      -5.7352431240627133e-001 7.6970806577751827e-001
      -7.5753082389058046e-001 -7.0073731673309014e-001
      -7.4131085448641298e-001 -1.1222245290602273e+000
      2.1206079700111369e-001 7.2126380574173299e-001
      1.3147752229777701e+000 2.0132986781783194e-001
      2.5604959591887022e-001 -6.0870538977784605e-001
      -1.3480020302750395e+000 -7.9688939587879748e-001
      -3.7984580150866881e-001 6.0266144025405621e-001
      2.1572222507265584e-001 9.7814058000061976e-001
      -3.7852376912034313e-001 6.8966409850239885e-001
      -1.3739522349637817e-001 -2.3522785519255657e-001
      -2.7259449699353311e-001 -1.4997670155284089e+000
      6.7293990780204227e-001 -3.1422726672788857e-002
      -8.9943114629653143e-001 5.6127258034414929e-001
      -1.8273524934446714e+000 -1.3471455790206173e+000
      -1.0134398559430928e+000 -9.2665445216978726e-001
      1.0976192912682581e+000 3.7804696493713130e-001
      -1.0889024285996994e-001 5.0222086203448935e-001
      9.1582471136963536e-002 2.2267361449743570e-001
      8.2111055729169502e-001 -1.6524725640238583e-001
      -2.6876382858628439e-001 7.7123835996754964e-001
      -5.9080773329307779e-001 -1.2677115536130610e+000
      -5.6866390645542375e-001 -9.4354755478681041e-001
      -3.1048559410235671e-001 7.3152884724591383e-001
      4.5152278756096259e-001 -1.7380834546784180e-001
      -1.0373288084654746e+000 -1.8716399170239409e-001
      5.5701837168682045e-001 -4.4143268898490629e-001
      -8.0357029445846950e-001 7.0430454261725717e-001
      3.2780079479756186e-001 1.1512047967269827e+000
      3.2399461229768273e-001 8.7446445697116915e-001
      6.5403832040413867e-001 -2.2059535682111767e-001
      3.0343658030225618e-001 -1.1902440330732951e+000
      4.7785941992664394e-001 4.8817463274841744e-001
      -1.6931642642255358e+000 8.3167373579830528e-001
      -6.7401847293980521e-002 4.3468540834315772e-001
      -6.3679093305765611e-001 -1.1099724339744016e-001
      6.3105572319329128e-001 1.0006699611257130e+000
      2.2286545186516235e-001 -9.4362714181534679e-001
      9.8185779352125346e-001 -1.7337445748539024e-001
      1.7742252906636646e+000 -2.1009229009000419e+000
      -2.7276798398406621e-001 1.7028614557912439e-001
      2.4733819669779775e+000 -2.3018019662442252e-001
      -3.1187947869865926e-002 -1.6585705391041466e-001
      -4.7461591904411501e-002 -5.7835955006729944e-001
      4.3531264685415261e-001 -7.5233516874435558e-001
      5.0704954625699260e-002 1.2496743493367863e+000
      2.1644768086856461e+000 7.3447738237137494e-001
      4.3014970045920664e-001 -8.0379533394020874e-002
      -1.2842925665870295e+000 2.8597095359173591e-001
      -2.7459799194618384e-002 -5.5952600930584330e-002
      1.1898579835655434e+000 2.9105764024678193e-001
      -3.4187244175487380e-001 -9.7292903827756025e-004
      -1.1152724818132552e-001 1.1062892840554024e+000
      7.5559544238190091e-001 -4.0920010969315196e-001
      3.0000661010214036e-002 -3.7763093378017221e-001
      6.3876807860066265e-001 8.1465348821633399e-001
      -2.9439281357018499e-001 -8.5972933156673359e-001
      2.6461080200549655e-002 -2.4655399275317100e-001
      -4.2483206439560117e-001 -7.7515995944242955e-001
      8.2478156223255411e-002 4.4119052418508053e-002
      3.0914865268203702e-002 4.5769971314003149e-001
      -7.2641637823301486e-001 -7.0118329357148890e-001
      1.5105343220616466e-001 3.5505597573060815e-001
      4.0073294293406286e-001 -5.1372702888446997e-001
      -1.5106111965366775e-001 -5.4645190797096233e-001
      -1.6072035303671894e-001 -3.1950063533698148e-001
      -1.9493911343723999e-001 -2.2317792180892654e-001
      -9.4545769469865792e-001 2.8634146784353037e-001
      5.7475688453275664e-001 3.2419963201066682e-001
      -1.1051578101466262e+000 2.3303741514016924e-001
      8.4979983908136358e-001 -1.7320760366797952e-001
      -6.3450762347843825e-001 -6.5743914228833866e-001
      1.9496671000803742e-001 -1.9992551811139234e-001
      -8.8429299101021830e-001 -2.5281054054160895e-001
      -4.8488245609986635e-001 -7.9466986917773952e-001
      -9.9272745331291812e-001 4.9825908200187424e-002
      2.8253771610673512e-001 3.5775411632836585e-001
      -7.5451826571668257e-001 2.9785205886785393e-001
      -2.4406605812969157e-001 9.7382374086787044e-002
      -3.0033997143643631e-001 4.7523670466993984e-001
      -1.3490177804338155e-001 7.5479482596476091e-002
      -1.5837206732636383e-001 -3.2341714481207401e-001
      -1.0363384694878745e-001 -1.5252575983465186e-001
      3.7524556477477106e-001 -2.0071817642615242e-001
      -8.1130043354762760e-002 1.8802416589268842e-001
      -7.1357583853832307e-001 1.4716844310785274e-001
      -1.5792096749563855e-001 -5.3822516584264657e-001
      -2.7601583439080918e-001 3.0946832317977696e-001
      -2.8387440857377416e-001 -8.9431902747038855e-002
      9.1864050941596564e-001 1.0948347281623780e-001
      -2.4749658961515431e-002 2.9860528343297549e-001
      6.5621223412784799e-002 -4.7526710641395259e-001
      4.9118761728620774e-001 2.7945271646580438e-001
      6.8254080012460094e-001 1.5308814504427828e-001
      -7.7313771233140716e-001 1.4097600615601009e-002
      -4.6791298254772018e-001 3.9235687968810673e-001
      2.4971131307945083e-001 1.2638316581179573e-001
      1.7455062801412408e-001 -2.9521362752828195e-004
      -1.2550042451426116e-001 -1.7760104192062937e-001
      1.3501741005124104e-002 -5.1064782561458036e-002
      7.5814789467841356e-002 2.3666949791936426e-001
      -5.4403262700335721e-002 -6.3011242979143800e-001
      2.3892065585587274e+000 -2.5284807819297529e-002
      2.3253266450987004e-001 -5.2383326015644500e-002
      3.9116403610824751e-001 -1.8741509663155229e-001
      -2.9462694755071434e-002 6.3225014862132570e-002
      6.8520838569931997e-001 2.9909123503459123e-001
      1.9599154436799682e-001 6.0076905124217761e-001
      3.4442643739706025e-001 1.5576650165957604e+000
      -5.5700749885348000e-001 -4.4639336516676814e-001
      1.1834885248290727e-001 -5.7795615191560312e-001
      -1.2866509737574774e+000 2.6235920692066994e-001
      2.4298409759254561e-001 -2.1437717597528214e-001
      2.3365686817691947e-001 -6.8413440501890757e-002
      6.6753782330831657e-001 2.3075364367627840e-001
      6.8988285769267310e-001 -7.5546070172538937e-001
      5.4774719840747055e-001 -5.9264906063075151e-001
      -8.5575398286724599e-002 6.0050626490519499e-001
      -1.0317172677778639e+000 -8.4491507831857926e-001
      4.3071650400530188e-002 -5.6549799665305656e-001
      7.8629545355010566e-001 4.4981305356587697e-001
      -4.5526943487092048e-001 -2.1068561776013506e-002
      8.0289438392098600e-001 -8.7958327968386518e-001
      4.8776590363890632e-001 -8.1143136900391588e-001
      1.4357229888389444e-001 6.1296844625878710e-001
      -4.8166391155625549e-001 7.1750497844397049e-002
      -1.1540056722044305e+000 -2.7010266714131398e-001
      -3.8634539546313301e-001 -6.0417643618082195e-001
      -4.7317628440237097e-002 -5.9926890514191966e-001
      -5.4235954841583134e-001 6.2998158486966216e-001
      -1.1801733545146187e-001 -1.1016937651424612e+000
      1.7885845751428500e-002 -2.7302510630809323e-001
      -4.7294321939145761e-002 7.0326826996621228e-001
      8.2853836917043988e-001 3.6838872320803856e-001
      1.0353525745303518e+000 6.3687973951971477e-001
      -1.0003540150894128e+000 -4.4767040093935456e-001
      -4.2007372812743543e-001 3.6351656759665152e-001
      2.1453167932023970e-001 -1.1486818277089007e-001
      1.6971703555537643e-001 2.2710575517123324e-001
      -2.2557750137598614e-001 -9.7470011082771035e-001
      5.1327392133508476e-001 1.3181315570353699e-001
      1.9820252155826867e-001 1.1246133783878889e+000
      8.3384434004927632e-001 1.4465950778853490e-001
      6.5140983944967312e-002 7.4593872603143918e-001
      1.0541895438255387e-001 -7.2281593186698390e-001
      -8.3876775080013299e-003 -6.4433530851670728e-001
      -1.7983924428055859e-001 6.0065837504287634e-001
      2.6711927262062139e-002 2.7926674517926092e-001
      -1.7728257673508904e-001 -2.7728158976202433e-001
      6.7856952038889140e-002 -3.6846939983062582e-001
      -2.2989365162483258e-001 -1.1326667887952722e-001
      -4.5124398668831134e-001 -1.5460554036382662e-001
      -5.5642983422698737e-002 6.3717707940427337e-001
      -2.0852845853762825e-001 4.3649273375398528e-001
      2.7285878719438561e-001 3.5454666680344448e-003
      1.4523138335543725e-001 1.4797667369973003e-001
      -6.5395234762292631e-001 -4.2516303879797940e-001
      -1.8510728969526716e-001 -2.1091286749698965e-001
      7.5149494905899517e-001 1.5552998871583984e-002
      2.0679530890243272e-001 4.0000058572054525e-001
      2.3485820771905838e-001 2.9776624062364915e-001
      1.3069826986135846e+000 1.3379524283670123e+000
      7.0210700157184858e-001 -5.4770805257957078e-001
      -4.2585942312296754e-001 1.0958936132975434e+000
      6.5749003440423778e-003 1.4359978236765350e-001
      3.2354445831355011e-001 -1.1298096604791851e-002
      2.4577794377067461e-002 -2.8551725618296758e-002
      4.3090439492439642e-001 -1.8619426025884876e-002
      1.5441378461357488e-001 -3.7295255183663184e-001
      -9.3542665672262826e-001 -3.2656170236441739e-001
      2.0161901355427148e-001 2.2984184525473089e-001
      -5.7045418778808676e-001 -2.7815654022862829e-001
      1.4179747848407773e-001 5.4858952894927160e-001
      1.3420674349121098e-001 -1.1552316228652459e+000
      -1.4395080165495966e-001 -2.9351482530627915e-001
      3.3943852170681965e-001 -1.0795583364610397e+000
      -3.7020099683970398e-001 4.4141945681477596e-001
      -2.9184097740987719e-001 8.1945516019094111e-001
      -3.8604462630731506e-001 -7.1816675968969024e-001
      9.4893397698144422e-002 -9.1299495825451649e-001
      -3.7800279521669083e-001 1.1794623870943183e-001
      9.5203701186718481e-001 3.9888496624942377e-001
      -4.9308397057849243e-002 8.2960228490477705e-001
      -2.5176765867730244e-001 2.7640114826642187e-001
      4.0429772420040760e-001 8.3632517397498118e-001
      4.2348717670235453e-001 9.1631049052515699e-003
      -2.6514456472835968e-001 2.0947330697389249e-001
      3.9658127974945850e-001 2.7336469788850110e-001
      -2.5511462992339384e-001 -5.1837241063807205e-001
      -5.4891354558022555e-002 -6.8028303368678644e-001
      4.4697580841348167e-001 2.9885412147678470e-001
      4.7345205457927884e-002 7.9246257733822412e-001
      -7.5356580014041485e-001 4.5813499759893861e-001
      -2.2966677054979065e-001 -8.8182191763416717e-001
      6.8013966080649274e-002 -7.9524138742625872e-001
      -1.7097863404243997e-002 -6.1965841390552889e-001
      1.6109676450808105e-001 -6.0829928454361282e-001
      -5.2644812949215150e-002 -9.9315427780305707e-002
      -1.3716075462493518e+000 -5.3613814346765605e-002
      4.1699658193760335e-002 -7.6725964808626768e-001
      -1.9129290825994832e-001 -9.4347131260615891e-001
      1.0804379573709024e+000 1.6180944592372809e-001
      2.7080884907234988e-002 -2.0070159675799698e-002
      -3.5355131354662034e-001 -6.6570667620157578e-002
      1.3437363924406515e-001 -5.0379718387781869e-001
      6.4649014991520115e-001 1.7124870224662439e-001
      -5.3827073894119830e-002 5.1972204419806656e-001
      -1.5492751439290302e+000 -1.9535835349055336e-001
      -1.7904548330879888e-001 -7.4446798025405514e-001
      8.7434940024359653e-001 -7.0138555291794813e-001
      6.6870393603815781e-001 5.0142436801291053e-002
      4.4038522479103565e-001 5.1059102458927430e-001
      -1.1353841387717651e+000 -7.9175774123308021e-002
      -2.1103463494161129e-001 -2.3246312252606746e-001
      -4.3411302785633842e-002 -9.3133162087330065e-002
      -1.0864820382057618e+000 -2.6047721307043281e-001
      7.0749835721908683e-001 2.2114957096837917e-001
      1.5577318361377621e-001 -7.7447660114789896e-001
      -8.9684686543922243e-001 5.9533957638864454e-001
      -9.0714445383715342e-002 -5.7385499615861413e-001
      -2.9620118009663260e-001 -2.1540438112656032e-001
      1.1208444112385709e+000 3.5751910785900939e-002
      -8.2771557214862390e-001 -6.9680140904095755e-001
      -2.8987160339058019e-002 3.0568580876479789e-001
      -4.4899933851315438e-001 7.8670639290637889e-002
      7.6259181685301303e-001 6.7212549886841066e-001
      4.8302069863026237e-002 -1.8809797221968663e-001
      -5.1152515694794709e-001 -5.8557635410389741e-001
      4.3085091515917384e-002 -8.3576585899234113e-001
      9.3977885152933727e-001 -2.3124639816107379e-001
      2.5708479968674119e-001 9.3637846323463747e-001
      1.1946964816544912e+000 4.4560641922384753e-001
      -5.8971821172821892e-001 2.1931360379164830e-001
      3.9354113506795213e-001 4.2097354704548196e-001
      -1.4348383978555386e+000 -8.6960391925528402e-002
      -2.7986131923923147e-001 -8.1384940400311612e-001
      5.5763284973271883e-002 -8.5444121476353585e-001
      -1.5015448160505229e-001 1.0325712544243386e+000
      1.9675843127645687e-001 5.9068195022580983e-001
      9.8372909529826058e-001 1.4029305200728545e-001
      -4.4318328990878086e-001 -1.9974672473169486e-001
      6.0018775432203786e-001 3.6189370554298100e-001
      2.1487662852085568e-001 5.6523318896033507e-002
      5.1912781870338154e-001 -4.8644417183557886e-001
      4.5347514378508508e-001 -9.3101669937444687e-001
      -3.3444141472500027e-001 -1.7041618059645505e-001
      -4.7273961337721365e-001 8.4254636032504204e-001
      7.5644871199080643e-001 -5.3090885864737025e-001
      -1.1489996665783550e-001 5.1183588009527436e-001
      8.9413907496793521e-001 4.0506108108421851e-001
      5.2685763272418096e-001 -3.8312455625590675e-001
      1.6510455875497954e+000 -5.1367782536437234e-001
      -2.8230139653948261e-001 -1.7513611601984708e-001
      8.1705687284234330e-002 2.1021118014676516e-003
      -6.0234069501790677e-001 -3.9715426525266895e-001
      8.8095771461328698e-001 -4.1396058865003382e-001
      -1.2987011067719443e+000 -3.3460961801873468e-001
      6.1256151887505406e-001 8.5951565951054340e-002
      5.4989309144948151e-001 1.3933048539099568e-001
      1.5968297905629936e+000 -2.4065378651337047e-001
      -1.9176344074632992e-001 -3.5837628135087324e-001
      2.4056454530785748e-001 1.5224763614479733e-001
      -9.4578052167358651e-002 6.5788029100342449e-001
      1.3057521976834363e+000 -1.0380343843845885e+000
      3.1001186975835021e-001 -5.7413909899105442e-001
      2.5382372780039825e-001 -4.8974952697645280e-001
      4.2630738994816708e-001 5.1801081417803360e-002
      1.2875775849700615e+000 1.3699826904999615e-001
      -1.4721596875812293e+000 -3.0680632813871844e-002
      9.1862950163319593e-002 7.1868086585700663e-001
      -4.0105593061407419e-001 -2.1765189233943322e-001
      7.8101750391252300e-001 5.3917302768721830e-002
      -4.9930998098565083e-001 1.1965074161050025e-001
      1.6240482242858749e+000 7.2849659589829407e-001
      -6.4017078350539303e-001 -3.0025309678805184e-001
      5.2520583243314922e-001 2.5329535769061662e-001
      -5.0325831991358483e-001 -3.1861998131614493e-002
      1.6584260594316899e-001 -3.2901230539880782e-001
      6.1043998804585609e-001 -7.7444971513381167e-001
      -4.5206592964064179e-001 -1.3732224729091249e+000
      -1.0880712087406736e+000 -1.3950738023250224e+000
      -1.4752287847269238e-001 3.1896369878847453e-001
      4.8586843658544598e-001 -3.2281098255200907e-001
      2.1236648906583241e-001 2.4536378054086394e-001
      -5.8368291198604438e-001 -6.7840566333308061e-001
      -1.5185210496816112e-001 3.2696783096742299e-001
      9.1596142214253629e-001 -3.4670387443638445e-001
      7.9257752017127636e-001 -6.6166742810266480e-002
      -1.2455495795061793e+000 -3.3037849993498325e-001
      1.5652182246815166e-001 2.8438362951567475e-001
      3.5000950954136778e-001 7.1594631617067728e-001
      1.0008228293178121e+000 6.7671322827667427e-002
      -1.1849026668987253e-001 -1.0031217999790905e+000
      2.1821787637873111e+000 -4.4042906751521488e-001
      2.4738968306438652e-001 -7.1164462966960174e-001
      8.3449475461789446e-001 -5.0915553046861628e-001
      -1.9398102004558088e-001 -1.6882523357255524e-001
      -9.4061000399434291e-001 -5.8061475024365483e-001
      2.9641394829773654e-001 2.4256336667293701e-001
      -4.9784086763940655e-001 -8.2389310901122770e-001
      -1.1068757419816273e+000 -8.8267329616269319e-002
      -1.7482081607914717e+000 -2.0814120319395280e-001
      6.0906779001406598e-002 -9.6025656814345972e-001
      2.8182617241228491e-001 1.8581192743981667e-001
      4.8525814385650701e-001 -3.6584275062949778e-001
      -4.7553843447751104e-001 5.0940156532657799e-001
      -2.1073627645231705e-001 -3.9188091955388543e-001
      -9.1447065785967052e-001 -1.7946440879543293e-001
      -5.2321810969154015e-001 2.8736263053378996e-001
      3.0168793030469085e-002 4.2788368780970126e-001
      1.1021415677771385e+000 2.7108426364282362e-001
      1.0713678183342119e+000 7.4412771952145473e-001
      3.9733476412793278e-001 -2.5537264541709614e-001
      5.8960111535762805e-001 1.4669740532623896e-001
      9.8984685921571480e-001 -7.4569436281245760e-001
      -7.4994089687725374e-001 -1.2683574236252644e+000
      -2.0532929968348745e-001 -3.1619338348941539e-002
      1.0839277781406005e+000 2.4854973275340506e-001
      1.1116795157447139e+000 3.8204485732894039e-001
      2.0961503250290031e-001 1.0989013345298637e+000
      -1.2142668064792085e-001 -3.5965597612267958e-001
      7.1640009358197398e-001 -1.2358937110772676e+000
      1.5201084701857961e+000 9.7184289381374897e-002
      -6.1178508835038126e-001 3.0186253194957557e-001
      3.4839114195610588e-001 -6.5541581612302302e-001
      3.9153389975467373e-001 -2.9708027198044416e-002
      5.0783746165498034e-001 -3.4190093728165283e-002
      -2.9163501652390916e-001 -1.3920491271353447e-001
      -1.0636954021156252e-001 5.6800524275231734e-001
      -1.1026162054437758e+000 2.3607116262403838e-001
      6.6845038704376580e-002 -6.3311184397565967e-001
      9.4838319388381642e-001 -7.3315751974754395e-001
      4.4714083481995154e-001 1.2392327056745811e-001
      -3.9358027959606662e-001 1.3200649729845422e+000
      6.0347240983768902e-001 2.4485956962750452e-001
      3.4408681616661879e-001 2.1065539707780236e+000
      1.6037205818680054e+000 1.6386800977973057e-001
      -3.5916929669494552e-001 2.2635103562278258e-001
      -3.3107148565816702e-001 3.2155725697800897e-001
      4.6311352915791054e-001 -4.8526254980554517e-001
      5.6586635782094608e-001 -5.2517292266570692e-001
      -1.3100604229509594e+000 4.5143392928691128e-001
      2.7702708854524716e-001 5.9840873041028797e-001
      -6.3644192797820950e-002 2.2555527817188967e-001
      -6.8252276382652813e-002 -1.6665730487699194e-002
      2.0770265841812416e-001 -1.1953778111195189e-001
      -4.0906921815775399e-001 -4.7844560794795710e-002
      6.3290721091280189e-001 3.0709923204471784e-001
      -6.5080896728233972e-001 3.3328759327716767e-001
      -4.8008018653968432e-001 -1.3751444163223647e-001
      -1.8920680055535452e-001 2.4784880838294625e+000
      2.7016188072156044e-001 -1.4381083176452855e-001
      4.3009968666220685e-002 8.2490215992220073e-001
      -7.4682221824703993e-002 1.2055602124435834e+000
      -1.1996339232741617e-001 1.0620406302125200e-002
      -3.2675925667011396e-001 1.9848199186665907e-001
      1.4389929303457323e+000 4.2176682552092920e-001
      1.5955773837587345e-001 1.3455593378687849e+000
      -5.5745369714449766e-001 6.5063065920121188e-001
      -1.8434692747196113e-001 5.4829719617724604e-001
      1.8997037973748507e-002 -9.0670786856470550e-002
      -2.7547917193936144e+000 1.0840104317686097e+000
      1.2495159028990808e+000 -1.6428774787028549e-001
      -4.2260358767946776e-001 3.4619684273048074e-001
      2.4396952149354614e-001 1.8822907104126506e-002
      -1.1238026090477369e+000 -2.9216158065466685e-001
      -7.4449718691709876e-001 -7.4125730549743718e-001
      7.0744298090100369e-002 -1.0447373259431170e-002
      -4.3992056981754285e-001 3.4589479255193650e-001
      -9.0268517431085549e-002 6.3473064044635630e-001
      -3.2219001629510569e-001 3.3768425292462569e+000
      -1.0504805338011229e+000 7.7104956903508870e-001
      1.3038543940809183e-001 -1.3889172408236397e-001
      1.0931138274796877e+000 1.5781005684891870e-003
      6.8592808319790644e-001 3.7851398320592353e-002
      -1.0610983702268135e+000 5.1987467266930953e-001
      1.9485166289466673e+000 5.2059381570509899e-001
      -1.9830307640474770e-001 9.7619019326722033e-003
      -3.6303078187849869e-001 -6.3802034541622543e-001
      -1.6470064615196611e-001 -7.9125486045962479e-001
      6.5716215295431590e-001 2.5638645117352737e-001
      -1.8228477900983950e+000 -1.4072982584778387e-001
      1.1299710292689074e+000 7.7809914375080808e-002
      -2.7665465816123419e-001 -8.7039596315119805e-001
      2.6641377136926192e-001 -4.4667258302289820e-001
      -8.0918372673233274e-001 -2.9097110252462637e-002
      2.9846564696597372e-001 5.8375013047633484e-001
      7.5112932491006867e-001 -6.6310227514669279e-002
      8.0914899168010157e-001 4.5022577955743555e-002
      -1.8320915537856636e-001 -7.2455347557608163e-001
      7.3734752996730735e-001 1.6910266880780505e+000
      -8.4112478448061201e-001 -2.0987127319508264e-001
      -1.0123966519253227e+000 9.9151994367313434e-001
      -7.0407810778281299e-001 3.2366250784499194e-002
      1.4458912452053634e+000 4.1363075095039453e-001
      3.5345917242270880e-001 5.1944902049818187e-001
      4.9080745455930525e-001 -5.7438514471325497e-001
      3.6619286262660211e-001 1.4996970361422005e-001
      6.5000057177427156e-002 -8.2001716046774642e-001
      9.0310309395479071e-001 -1.6727699076476821e+000
      8.5861283108642869e-002 -9.2486348223414272e-001
      3.4080846393453612e-001 -1.2683691587443882e+000
      4.1462300024227861e-001 -5.8662014953651187e-001
      6.5577305504385663e-001 -6.5137427692286054e-001
      -6.5204958506989388e-002 3.7787442711443325e-001
      -1.1034736801559171e+000 -9.3244367408470452e-001
      7.6258459706055681e-001 8.8730932413233909e-001
      -9.6098562942111088e-001 -3.0223871754220166e-001
      1.0189655559818567e+000 -6.9775228112227017e-001
      -1.7332935783781378e+000 -2.6431075344760263e-001
      -4.1274378869618444e-001 -1.7731670076292494e+000
      7.7638453434754717e-001 -1.6497741134397597e+000
      -6.3671709652301878e-001 6.8117257333574466e-001
      -3.8334700668085353e+000 1.1934152045252364e+000
      1.0956758280189243e+000 -2.2725949503657669e-001
      9.9384477505116087e-001 8.9575406498193844e-001
      -9.8870537142394022e-001 -5.1100809907132350e-001
      -2.5339113328797253e-001 -8.4420488613792075e-002
      -2.3342773441786932e-001 4.6212678316468511e-002
      3.7909736777181391e-001 -1.7905821083118829e+000
      3.5527326973348500e-001 5.7608388021342427e-001
      -3.2405631134100887e-001 -8.8786400773997098e-001
      -1.0634112897847681e+000 -3.0785407213857141e-001
      6.5140834352883181e-001 8.4181080932004160e-002
      -2.7928138031400398e-002 -1.9431577667380609e-001
      1.4211993554452875e+000 3.3327610877925767e-002
      1.6671631096781153e-001 -5.9288510330216437e-001
      -3.9655989771399397e-001 5.7186304946229560e-002
      1.4272579792610354e+000 -2.6915594394913100e-002
      -1.8414078789714809e+000 -4.7164763162268780e-001
      1.4596573928572205e+000 -1.7226128399036014e+000
      -1.9068325917373907e-001 -5.8185766068294187e-001
      -3.0031534988337988e-001 -9.6463559475256799e-001
      -9.4342557922943193e-001 -6.9654353280613479e-001
      1.3403057390999582e+000 7.6455871822684451e-001
      5.3775010488674124e-001 1.3017139104902571e+000
      -9.4468496095817167e-001 4.6809922396758225e-001
      -1.5763058558563797e-001 1.2150391515794678e+000
      -6.2855544562970445e-001 -4.7687802148794943e-002
      -5.8160053748760854e-001 3.3500919289511621e-001
      1.1313637731029309e+000 2.1527888181922616e+000
      -6.4089547077440112e-001 -6.2885410948573450e-001
      5.6667520213072142e-001 -1.1346106733646502e+000
      7.9930862313996986e-002 -1.2402013955400599e+000
      -1.1917594504114000e-001 2.3085457440816293e-001
      1.4934694272299476e-001 1.8194485276543848e+000
      4.3806514054343139e-002 -5.6429885201063168e-001
      1.6117184729415651e-001 2.2092220508443106e-001
      -8.6823266914421060e-001 2.6771284404217399e-001
      1.4307791306148263e-001 9.0656704344561884e-002
      -5.8165461275489838e-001 -2.1075717404944235e-002
      -1.2475447771894983e+000 1.7354587934171958e-001
      1.7112559914147774e-001 -5.6937488200177644e-001
      8.9167351381278392e-001 -9.8860642015390343e-001
      -6.5981708105431269e-001 8.0931703410250466e-001
      -5.9662027775852589e-001 -1.7111558498274954e-001
      4.6077857321693599e-001 1.4763381544013557e-001
      1.5445006701616504e-001 4.3415372773103683e-001
      -7.3743485425768873e-001 -7.1234365271978495e-001
      -1.9052139952206898e-001 1.3387717628555305e+000
      1.0034042226332451e+000 6.7981693674173638e-001
      -9.0307254646900836e-001 -8.7878756717606754e-002
      8.8288907940122463e-001 -7.9155004122653749e-001
      7.1951936890079160e-001 -2.8951694820505974e-001
      -8.9725618531495943e-001 3.7563988497383888e-001
      -3.9647017868504514e-001 1.2176323572492704e+000
      -5.9835741573205681e-001 -7.7318187729928656e-001
      -4.2244571724373892e-001 -8.4196170497665923e-001
      4.6226627026016154e-002 -2.0510173843945062e-001
      6.8511777592635625e-001 1.1812025489167839e+000
      -1.0119536447391768e+000 1.3451017126653150e-001
      -1.4612127248957621e-001 2.8657924804354862e-001
      -3.0662608813768288e-001 -6.2875048428207481e-001
      8.3299044995812821e-001 -7.7533951594209161e-001
      -6.5020125607992174e-001 9.1043850135231197e-001
      -1.0920317574536946e+000 -6.3102876437580324e-001
      1.3040194053635076e-001 5.3039200580030066e-001
      -3.3475831714833576e-001 -1.4104547548372379e-002
      1.8183897166860691e-001 -4.3748112815346810e-002
      6.3957439825037443e-001 6.8343150873550096e-001
      4.3575126206332804e-002 5.2605762543967871e-001
      -8.0050443378302902e-002 -5.7118245664129552e-001
      1.3639901034648330e-001 2.6785565963539271e-001
      6.7967321936355685e-002 -7.3709978279886001e-001
      4.4220933060741086e-001 2.7436919130131163e-002
      -7.2908617395516451e-001 6.0748855016644754e-001
      3.1647426866974054e-001 -2.1854572633238270e-002
      -8.6803556281989505e-002 -6.2303957178396407e-001
      8.2003698398113278e-001 -8.4302090928856188e-001
      1.3904138808659558e-001 1.4859558167017814e-001
      -3.9383838827316336e-001 -7.0129587280779015e-001
      -4.7461182333178903e-001 1.9002570115480383e-001
      5.6047535884842048e-001 -4.9813833586359074e-001
      4.0128269427177499e-001 -1.3851223268373460e+000
      1.3887724666286561e-001 3.1750399579146960e-001
      -3.3662853536440190e-001 -4.6094877306796032e-002
      3.5264089686088274e-001 1.2920711448919679e+000
      1.1153829138103132e-001 -1.9506808724394742e-001
      -4.6337233554484275e-001 -2.9964579864242169e-001
      -1.2673917139404214e-001 9.2661015714671034e-003
      3.6772007670061946e-001 -2.0034649804950430e-001
      -1.5104841947328465e-001 5.3973387738299627e-002
      -1.1050290179610221e-001 1.6373190498638151e-002
      5.1274813095460270e-001 1.4811137867786969e-001
      -8.8621713167874351e-003 -7.6722646330186672e-001
      1.9276635060635838e-001 1.1779494788572762e+000
      1.1610296925372676e+000 2.6237844973141217e-001
      1.3633824810212425e-001 -7.6092302577072418e-002
      3.5209506680256181e-001 -3.7536148071464832e-002
      -1.4584173141987775e+000 6.6030619037336147e-002
      -1.7359892114088678e-002 -6.7727204372399119e-001
      -3.5978373875379210e-001 7.5754647659554886e-001
      2.3410954833502109e-001 -4.1229809377700405e-002
      -1.4374199240543209e-001 -1.7747966979788505e+000
      6.4662394267998302e-001 2.8012422081996391e-001
      8.1252375060582294e-001 -1.7105751444079413e+000
      1.1603219817910926e-001 -1.0479260662068245e-001
      3.9317229760442252e-001 1.2315372528094759e-001
      5.6244468167467621e-001 1.3865680481082715e-001
      -5.7254329152464578e-001 3.4855294932712300e-001
      -1.0880736843569518e-001 -1.6705313578274292e-001
      3.3729912010480345e-001 -5.5204083459531994e-001
      1.3825627698955327e+000 8.3211862684164264e-002
      -8.1299439977753574e-001 7.6907416885704005e-001
      1.9893745024731652e-001 8.8018044869162676e-002
      8.3971807037776028e-002 8.1144453751428328e-002
      2.7532505317539485e-001 -8.8296003244109045e-001
      1.7971602211430158e-002 -1.2178789714106122e+000
      9.6983675920554596e-002 4.1251671829679365e-001
      7.8490835145269489e-001 2.0939128288266129e-001
      1.3700124326263832e-001 -1.2629580717756042e-001
      9.6368876813004456e-001 -3.3258042346446956e-002
      3.5184115949389622e-001 -6.5407366012783452e-001
      -4.3116307352083233e-001 -3.3032660126857394e-001
      -1.7762875919146778e-001 9.1879943011039944e-001
      6.8869020139457213e-002 7.2779767206116486e-001
      2.5878829938252473e-001 -1.0376545201319384e-001
      8.9845575524998611e-002 -1.8318782087693275e-001
      1.5782042170083485e-002 3.1101185006156440e-001
      5.6127492014039590e-002 1.0430600789577246e-001
      5.5014719041681626e-001 2.0837654820817023e-001
      5.8484357725401726e-001 -1.1651255434693136e-001
      -1.8093573376125066e-001 -2.9241517095294600e-001
      -1.4081877478131916e-001 -1.2404303405315308e-001
      2.5109403839276379e-001 -3.1249697999935000e-001
      7.6975798706844026e-002 -5.1666559271473556e-001
      1.0491842708647703e-001 -2.4128057899419789e-001
      -1.4371112041067587e-003 -2.3611557427650809e-001
      -2.0554026173054268e-001 -9.8523267082851362e-002
      -2.3022972733799005e-001 -7.1391504641297636e-003
      1.8967564861870756e-001 1.0419026866356078e+000
      -1.2740603228073266e-001 -4.0805901286872115e-001
      1.4201241522599650e-001 2.9384742242932599e-001
      6.0684280122083670e-002 4.0372472890400363e-001
      -4.5453906142817385e-001 2.3301462149211535e-001
      -6.8766416556956700e-001 -3.6667863805959494e-001
      5.2322614095360254e-001 1.2165216037029536e-001
      2.7233677754360208e-001 -9.2857557287470904e-001
      1.6669930687379692e-001 8.5395848713585953e-001
      -2.1323945685717324e-001 -1.9198058325386350e-001
      5.5303763401719008e-001 5.1419037641800919e-002
      -7.7822243852642373e-002 1.5415699700828794e-001
      9.8602539465869143e-001 -5.3796557875160944e-001
      -3.1697459786806853e-001 -1.2255290820903057e-001
      1.9230427875067183e-001 -4.3097990288709465e-001
      -4.1809054229687631e-001 -8.4936934343174664e-001
      2.9438675953533211e-001 -1.2175914313843984e-001
      3.4911563996977951e-001 -5.3151489611755909e-001
      -6.1237658680549534e-001 -8.8138711679086734e-001
      8.3642325943162332e-001 -3.0777509649536033e-001
      -5.4565862290031619e-001 1.2923748527075534e+000
      -2.3866956951047016e-001 -1.8893596255743406e-001
      -4.0782182539294193e-001 -5.4902245219936341e-001
      -2.7689186005204269e-001 4.2366801289736172e-001
      5.2035556314420239e-001 4.9321907673784454e-001
      -5.6660739397318749e-001 4.2442823223824777e-001
      3.6669015871672778e-001 -3.5966090306195503e-001
      -3.7165852564594121e-001 -8.0572904738640139e-001
      -1.7192371339558263e-001 1.6927773777177699e-001
      -1.0612725768429265e+000 -1.8401528168711518e+000
      1.5932123470841308e+000 6.3908704816583206e-001
      4.4809721066599612e-001 6.3267522841642254e-001
      7.6474616424538011e-001 -9.2206304644004269e-002
      -5.6640236609330974e-001 -5.7950453459480089e-001
      -2.1064759955066040e-001 2.6243320915024893e-001
      -6.6048831898075117e-002 6.5546490672026170e-002
      3.4550788768214741e-001 9.3464828115766130e-001
      -3.4477500259973631e-001 -2.8422179254202878e-001
      -3.7744643939738487e-001 -1.2880451217851545e+000
      1.3985089776596418e-001 -1.7628676122652971e+000
      -1.2730442906164550e+000 -7.7441768875174466e-001
      -1.0320717416947263e+000 -4.9851359091267688e-001
      -4.8526039795672465e-001 1.4274142910980383e+000
      -6.3242291104271819e-001 2.5340320424306623e-001
      1.0362393454412566e+000 9.6369494069116546e-001
      -8.0304039425125351e-001 -1.1767938865877876e+000
      -1.8668586869151396e-001 -7.5366692378850164e-001
      -3.6871081119023097e-002 1.0278120364348122e+000
      -7.5514097660363033e-001 3.0651209243842802e-002
      1.2545022213560170e-001 -4.3046297490498503e-001
      9.7409564107076033e-002 4.1410726244871618e-002
      -1.1456479229166667e+000 -5.8589644031841903e-001
      5.7975088737005664e-001 1.2784772717319479e-001
      2.5588016993971380e-001 -1.0968567735781962e+000
      6.7563085128067224e-001 -3.6569588084383403e-001
      -2.2321711490791454e-001 9.5705721880179584e-001
      -6.7838672142429801e-001 -3.5280129250821729e-001
      -6.9388881653162660e-001 -5.8582817076583693e-001
      -1.7861895762049482e-001 1.2830860181259837e-001
      -1.4243552043744054e-001 5.0229353741993943e-001
      -1.0649850185111707e+000 1.1171427454591362e-001
      -5.0063973819183361e-001 -9.2889362938053699e-001
      6.5912798140041029e-001 -1.3959176098987480e+000
      -8.1852383540770002e-001 1.0844451554227015e+000
      -1.2416401866110740e+000 -5.7775661753403158e-002
      -1.1048021391297691e+000 1.6282384219133968e-002
      6.4268087629743975e-001 -7.2934115278062783e-001
      -2.2628149129234881e-001 -2.2105029090853437e-001
      -7.1899040809086967e-001 -6.7261918424564382e-001
      3.0872374468334890e-001 4.0272411885582943e-001
      5.3980215666610365e-001 -7.9244098727422510e-002
      -1.4857088007450348e+000 2.1944269399633504e-001
      -1.7464640360468581e-001 2.0100960324950354e-001
      -2.9043164097182401e-002 4.1102610446322363e-001
      -5.9012276352244852e-001 -5.5378032134442501e-001
      1.5123162216063316e-001 5.7513578326064685e-001
      -5.6685573636945674e-001 -4.8356575833588283e-001
      -4.0467959170549928e-001 1.7118038475088485e-001
      -3.2847452125618121e-001 -5.0186437280931626e-002
      -2.1446875640147958e-001 -1.0791459586247375e-001
      4.9118711549616154e-002 4.7547853172663890e-001
      -5.8521312422710658e-001 -4.8206874518170469e-002
      -4.9709486321234603e-001 -5.1664304018506002e-001
      -7.5560506644834702e-001 8.3342288924343233e-001
      3.7386058344581491e-001 -1.3257719360998491e-001
      4.1335289041301959e-001 1.5569822357270930e+000
      3.2369383241474070e-001 9.5552640576546655e-001
      -2.5555932722169172e-001 1.7849428510387061e-001
      -1.4995760609278311e-001 -1.0859430450619814e-001
      1.5042804160561185e+000 8.6629143957062726e-001
      7.8789463364099832e-001 -6.5740802925234132e-001
      4.2272949169104557e-001 3.5569774073368965e-001
      4.6500729748774267e-001 1.3541832750261844e+000
      6.1714393966562853e-001 1.0461825940203273e+000
      -2.9401007998811829e-001 -4.2978129820108790e-001
      5.3964408572237466e-001 -1.9963494945960574e+000
      7.8993869649262152e-002 1.2630987585939304e+000
      2.8449635677631607e-001 1.0013221796662386e+000
      9.5281111337938673e-001 3.3004495454109789e-001
      4.3515823081202443e-001 -2.3330782571075992e-001
      4.7777462338282578e-001 -1.3563634682770533e+000
      -9.0589245811469876e-001 -2.7084333644316522e-001
      -2.2572058081352941e-001 4.9340762847758274e-001
      -1.9089872788016798e-001 1.0297584109377727e+000
      5.9146130653172202e-001 -2.4958361748368321e-001
      5.7887947289576713e-001 1.0681101863914209e+000
      7.0970180061643673e-001 1.7681603243443393e+000
      -1.4633125570231570e-001 1.0254416412103169e+000
      -6.3007963206969464e-001 -3.8633864527462547e-001
      1.7672164475991483e+000 5.5622931678102483e-001
      2.3077937661412101e-001 -9.8003649386704816e-001
      9.3026236563143960e-001 2.0654272981323774e-001
      8.5055541792080402e-001 -2.5176670299792875e-001
      1.1949342600703061e+000 1.6128594465177570e-002
      -3.3744804330584938e-001 -1.6364322824339861e-001
      6.9412121309044783e-001 -1.6417542939986660e+000
      3.1872632802010231e-001 5.6128911277538096e-001
      9.9518139741710445e-003 1.1464479998498667e+000
      8.1882739416151573e-001 2.3523832899149855e-001
      1.4527544241073163e+000 -1.1490154399996666e-001
      4.8653616680600620e-001 -7.6036159636365375e-001
      -8.6374848534385329e-001 2.4108265387152196e-002
      -2.5429304529122609e-001 -1.3208945373442924e+000
      -2.3148259185744971e-001 6.7473930300872720e-001
      -2.0792371242001245e-001 1.1406549952250364e-001
      -9.9429484951875674e-002 1.5419497661847087e-001
      -1.0119993962831712e-001 6.1089988889080626e-001
      -1.0114001565128055e+000 3.4644899886298680e-002
      3.3013226428123862e-002 8.3040471529806170e-001
      9.8271975672636402e-001 2.9286213587696958e-001
      5.6666937591025335e-001 -4.9222006417538849e-001
      6.6277300828906560e-001 -8.0203287393237344e-002
      3.1672585904640393e-001 9.1780068075500071e-002
      1.0916715222270851e-001 -7.5889995116133757e-002
      -6.2487318754099397e-001 -2.1524276903995315e-001
      1.5046699633743035e+000 -1.2095425487072602e+000
      6.8686813522194534e-001 2.1932134340191797e-001
      1.1394335316074106e-002 4.9013785911588070e-001
      -4.5308171479507570e-001 -1.2293656924931617e+000
      9.9578744917242235e-001 2.4013763758221757e-002
      6.5661978747043812e-002 -6.3915291956612819e-001
      -3.7281608482269440e-001 -1.8418977367013292e-001
      2.7113628045965257e-002 -3.0810000943507321e-001
      -6.0159500095655483e-001 -1.9408656063598576e-001
      1.0610597778428577e+000 -2.3793100210834259e-001
      -1.4696687889087293e-001 1.1746096347151980e-001
      1.1630632496921232e-001 -2.4381368435265441e-001
      1.0754200995045632e-001 -2.2823345158205494e-001
      8.4535313841006487e-002 -3.8223344075811272e-001
      -1.6324752761638670e-001 6.3442305014942291e-003
      4.3640409055514379e-001 -2.2783858544910190e-001
      -1.4592837817069890e-001 8.4834317953077887e-002
      -1.1829403630948890e-001 -7.0441947823327725e-003
      5.6065086649352414e-001 5.7758514685711658e-002
      -4.7588494197103280e-002 -7.2340049217824054e-001
      8.9298215100131320e-002 -1.5283464659497353e-001
      1.2460086038217675e+000 2.5563895073526405e-001
      -1.5550406165169719e-002 -6.9124251325450040e-002
      3.9869195289781795e-001 -4.3065258383527927e-002
      -1.7275619247128529e+000 8.1080119777319229e-002
      7.9774755413726028e-002 -9.5168169776921085e-001
      -3.0344212275081545e-001 6.3727766445040301e-001
      1.8098521345880775e-001 8.6867363879891222e-003
      -2.6735994497104076e-001 -1.3933797482714885e-001
      8.4579579703112651e-001 3.6846288440485153e-001
      1.1776078930048717e+000 -1.5918796199284213e-001
      2.5504038870763324e-001 -1.2616199535388928e-001
      4.6137140674238603e-001 -3.4858352390013314e+000
      3.9344829943367410e-001 -1.3883976349665272e+000
      -9.1050538516496438e-001 2.1122584581829512e-001
      -7.9024383028816994e-002 -1.2824605499935464e+000
      -5.9213862671844286e-001 -6.0956270398382217e-001
      2.5475635742193092e+000 -3.5096797060568258e-002
      5.5571595736619489e-002 2.6511549499871262e-001
      1.8399788902207609e-001 2.8441312722747975e-001
      2.6105509658270781e-002 -1.0180858332295957e+000
      4.0343498555337320e-001 -1.7607309317455461e-001
      -3.0176926304034057e-001 -9.0752382288268985e-001
      2.9107149577048580e-001 2.8242113130033064e-001
      -8.2037379735881799e-001 2.5700770724068397e-002
      2.2788392208790478e-001 5.6691336889383137e-001
      -3.8890725394274167e-001 -1.1454970924314113e-001
      3.3953257655232044e-001 2.8533786103938133e-003
      8.7387479150701400e-002 5.0603158497038336e-002
      5.9545839170832816e-002 2.1128917380635440e-001
      1.4749010295330919e-001 -3.9759039263864465e-001
      1.5141654689349348e-002 -2.0992294911303153e+000
      -3.1818483417079366e-002 -1.2201797227242479e-001
      1.9443195418892753e-001 3.6788660392444406e-001
      -5.0815806611349457e-001 3.6463293268378244e-001
      4.7362288153301701e-001 1.9826662735548392e-001
      6.3605753463062253e-001 -2.4950730212229898e-002
      6.1087486802154434e-001 -5.0736915864696655e-002
      6.4097959245195180e-002 -6.1878807801658747e-002
      -1.5244766423670561e-001 1.5906513339145544e-003
      1.1055371539166915e-001 -2.3043878020998890e-001
      2.0012418714875668e-001 -2.5764926295910229e-001
      -1.7641539521631747e-001 3.6031220901240174e-001
      1.0994000639367936e+000 -1.0045021518668724e-001
      2.2913010730178285e-001 1.4029689070722695e-001
      2.3555218914478032e-001 -3.1508135246049207e-001
      -1.1381382346578603e+000 9.8938793804878411e-002
      1.5735125902042243e-001 7.6410714442610039e-001
      -3.2082193110936197e-001 -1.3241215687686194e+000
      -1.0570212455277612e-001 5.5132348285491184e-001
      4.9297244262170770e-001 -1.2275002271071966e+000
      -5.9265661535263636e-001 -4.1253699701723978e-001
      1.6881766810137847e-001 -2.7682573310980546e-001
      1.8478141746773935e-001 -5.1529505868084180e-001
      -3.4159628748659737e-001 -1.7934416785599447e-001
      4.1817307011302313e-001 1.0033058350313639e+000
      1.8175881964149938e+000 1.0351473402333082e+000
      -9.9917964768063727e-001 -1.2112192069473731e+000
      -5.7963208887845374e-001 6.7449025644805177e-002
      2.4568719335861944e-001 -1.7594619682121762e-001
      1.2758155994971958e+000 7.1234615861418230e-002
      7.0252382520657808e-001 2.5093208054248367e-001
      -4.7823477848972584e-001 1.9005044744914862e-001
      1.0569947758690095e+000 -4.0831621643628063e-001
      -1.8947834872538419e-001 -8.6706536501692200e-001
      1.9338877881750879e-001 -6.0959396053557502e-001
      2.5249834719219999e-001 3.5090435456087804e-001
      -3.2920496389413473e-001 5.4234563216254450e-001
      -9.0473049071004652e-001 -9.0446753142472169e-001
      3.5571022894143683e-001 -4.2245643686938378e-001
      -3.0651552616414074e-001 -1.7170591822793195e+000
      -1.4975186788232444e+000 -8.4493163923562953e-001
      -1.1246284858505891e-001 -1.4316974077968765e+000
      -1.0144839338305899e-001 -2.5032795876285130e-001
      -1.0961988686701908e-001 7.7731286834460525e-002
      6.6542640322607338e-001 -1.3509071443140286e-001
      -2.3586574542738905e-002 1.5923929455787715e+000
      4.6376694568860033e-001 -2.7930744462186391e-001
      1.3499731933415575e+000 -4.9844139461421944e-001
      7.6862166683468736e-002 7.4789297093748774e-001
      6.2318204825677392e-001 -5.3959178401226982e-001
      -3.6608992349430219e-001 8.6449670508778464e-001
      -5.0652826681291596e-001 -8.3889109304713072e-001
      -9.8237648724916971e-001 -8.8714028875906836e-001
      5.6532634218581471e-002 -1.9656564974739683e+000
      1.6285766894417544e-001 -5.9791133921528364e-002
      -1.3454907725644558e+000 7.3913029359215954e-001
      -8.1934143461254050e-001 1.7899849947317406e-001
      -8.5345841170611736e-001 1.8468557256080237e-001
      2.0248687268194132e-001 -5.3739636128388490e-001
      1.3894758710374988e-001 -1.2539499908884890e+000
      6.6608082602486052e-001 -9.8649076182187032e-002
      -2.9563219950931796e-001 -5.7112733114109937e-001
      2.3359529859297393e-001 2.0140085645895325e+000
      -4.5204277999341963e-001 1.4246305145602776e+000
      -1.6700829368432140e+000 3.2508861627390867e-001
      -1.1120475298380898e-001 -1.3948685565671581e-001
      -1.0809595468433504e-001 -1.7990985953280689e+000
      9.6688833286869347e-001 -1.0177659383169240e+000
      1.3340693363703269e+000 2.4052526655338449e+000
      1.8933115861739507e-002 3.4965328440469146e-001
      -3.5846971839004488e-001 2.8599197345788679e-001
      -6.0917447180186279e-001 4.0452369760515561e-001
      -1.5710335793052184e+000 1.3431610732986468e+000
      -3.6418020356461439e-001 2.4037985232506390e-001
      7.4926639313813848e-001 9.5349482907103977e-001
      -4.0986632668584688e-001 -1.9536965313330346e+000
      1.1319788251831511e+000 -7.9956880121966978e-001
      -1.6682442009353857e-001 3.5634936419999430e-001
      -2.1757221736246724e+000 -2.0228988744462684e+000
      9.2274743345979371e-001 -1.1990619832006981e+000
      1.4988667494499237e+000 -3.7350381174100661e-001
      -3.5739564902756683e-002 5.7874486692522076e-001
      -2.9180416806789661e-001 -5.7932294271685647e-001
      -5.3548762780385062e-001 4.0898302261903346e-001
      4.0653641548129044e-001 5.4273423541397936e-001
      1.1920889247623945e+000 -4.0149294428811677e-001
      6.3435518530749613e-001 -2.3421467312325231e-001
      -8.5449303649888531e-001 4.8364197914579432e-001
      -6.3175026920104224e-002 1.1130554183596206e+000
      -3.3644720127191630e-001 1.8875544840544298e-001
      -1.5578200080899400e+000 4.1932854162458311e-001
      4.7394982118483683e-002 6.8259637356733938e-001
      2.8527307515679950e-001 -7.7874679915520648e-002
      -1.4923397146198498e+000 4.6921882853875529e-001
      -3.3704889996030751e-001 -5.8370084159029489e-001
      -1.8244620562213294e+000 -6.6911055366752448e-001
      1.3687673885792579e+000 2.8137549063108913e-001
      -1.8279651443324443e-001 -8.0664225736158113e-001
      -4.0774226786685325e-001 -3.0691273957558791e+000
      2.0169507515189942e+000 7.3307149996914234e-001
      -3.1080237608084332e-001 9.0932956364512230e-001
      2.2966020461239442e-001 -6.3725074648995725e-002
      -2.0487710455431413e-001 1.8961602333392782e-001
      -3.4516372675138374e-001 6.2676043173273510e-001
      4.1897619244628637e-001 -6.7655836483131515e-001
      1.7178363527953389e+000 1.0574670481509962e+000
      -2.0709278271056458e-001 5.2528907656122770e-001
      -1.4674005933217653e+000 7.0660009016965475e-001
      -5.8914476050173348e-001 6.2215901139931851e-001
      3.1021382616922610e-001 -2.5782474635729478e+000
      -4.6418311759418546e-001 -1.9207641440141279e-001
      6.8642693940507238e-001 1.0708310368862690e-001
      5.3962139901742623e-001 8.6467660465837939e-002
      -1.4020790872121622e+000 7.2422381271019687e-001
      7.1923505109660224e-001 -5.7206067273305672e-001
      -2.8380597792681295e-001 7.7604543084873925e-002
      -3.0769736617933269e-001 1.9701686287767879e+000
      -1.2777839761037407e-001 -3.6767207025590209e-001
      1.4167259537274548e+000 -7.2148884944868041e-001
      1.9422072399627242e+000 9.8127184553774549e-001
      -9.1153147516922395e-001 1.4134507918087531e+000
      1.3404971194368816e-002 6.8045070995707990e-001
      6.8525626318271715e-001 1.1518093907950548e+000
      -8.0390048450577900e-001 3.1772881367595912e-001
      -4.3253545971427976e-001 -9.3872978147612773e-001
      1.3554348930026586e-001 2.1531977337942845e+000
      -6.5563995090705651e-001 3.2141727757475397e-002
      -4.1127628757186524e-001 7.7957735373181469e-001
      3.9852120463805046e-001 4.7193072373796024e-001
      6.5878800457697606e-001 -2.2819313166459398e+000
      -9.5687383033842077e-001 -6.3420765221516973e-001
      6.9555027483261000e-001 7.8144733800698785e-001
      6.2042763262258416e-001 3.2133636238473540e-002
      -5.1259449645946931e-001 4.5820742186234699e-002
      7.1921900179152531e-001 2.7224675939174194e-002
      4.1924681934442576e-001 -6.5934363986188127e-001
      2.9638296944634535e-001 1.3643672382019560e+000
      8.9423712278955325e-001 8.7514505436091947e-002
      5.1101187636161971e-001 3.0972871622675208e-001
      1.0976612807409560e+000 2.8451471627178426e-001
      -5.2235729107399775e-001 -5.9951341616513454e-001
      -1.0769402501476766e+000 -5.4143983962743514e-001
      1.3061556080761689e+000 1.0199975949972692e-001
      -1.6360196826173263e+000 -4.3395563981224888e-001
      1.8575463168058401e-001 -6.4371167109574301e-001
      8.0181935354644074e-002 1.1130933845179669e+000
      4.5924300076572322e-001 3.4692309724463261e-001
      -5.1168822802891367e-001 -1.7407094748308963e-001
      5.4379625834664025e-001 -5.1730304279714501e-001
      9.3611554384103279e-001 -6.1312436578399632e-001
      -8.0189084130980448e-001 -1.2996939770093845e+000
      7.4268740899709706e-001 7.9689861890889546e-001
      2.7613560769615086e-001 -6.0039709397764696e-001
      -6.9760659631803612e-001 2.7579951503676181e-001
      3.2703240902038289e-001 -5.9920625625675983e-001
      1.2454805963997957e-002 -3.7296650407423326e-001
      -5.8158440477027418e-001 8.5618970918628523e-001
      1.0890676623541297e-001 -8.7229648179292996e-001
      5.8493581916937465e-001 3.1525378159245782e-001
      1.4526576733154181e-001 6.2488927777847314e-001
      -4.0248741390629755e-002 -8.2743100448223439e-001
      1.2500069118462456e-001 5.8442203066654555e-002
      6.8126002316151013e-001 -2.4814263020969733e-004
      -3.9228775233131355e-002 -2.2244258814443649e-001
      -4.7997721416294353e-002 8.3122102379152053e-003
      2.0602153270049589e-001 1.4753690530244337e-001
      -1.1587830943505012e-001 -1.3846841966419684e-002
      7.9560343999302841e-002 -1.2947948960573966e-001
      -1.1810413325954525e-001 1.6379575498261392e-001
      5.4712775183211576e-002 -5.0021556510806808e-001
      -3.0936886450692581e-002 9.8752611664105955e-002
      4.8768884041553252e-002 -8.9073958767530950e-002
      2.4653980462967914e-001 -2.8224214499153268e-002
      -5.2404498628373386e-001 -6.7681568054215629e-002
      -1.6577245858101691e-002 3.2968412954658403e-002
      -1.6945509175602741e-001 -1.3444971021058030e-001
      9.8161045913538574e-003 -9.3228716016800061e-003
      2.2928076226847710e-001 8.5378214068884489e-002
      1.0528029396993379e+000 1.1663908188356786e-001
      2.8684598533930062e-002 -8.6731733018253709e-002
      3.5920329785814048e-001 -1.4523203515987687e-001
      3.3952873967623837e-001 9.3114191001672869e-002
      2.0061795237709129e-001 -7.4290636035371255e-002
      -3.7139969843606119e-001 2.5396483129335340e-001
      -3.6743394710932589e-002 -5.1316329906040258e-002
      4.5192743994862072e-001 1.8810381650759012e-001
      7.9802774714068242e-002 1.5715926056767041e-001
      -6.0955552477735417e-002 1.2300638947397544e+000
      4.7897900117650910e-001 6.2172365812487196e-001
      1.2869117036549474e-001 1.2735927730686433e-001
      -2.1427786203644769e-001 -2.1811305915918283e-001
      3.6466774012136971e-001 -5.8397469995231854e-001
      3.5033368657448566e-001 1.9424052955870297e-001
      2.5799677572836421e-001 4.7173542397098933e-001
      3.2329440808993533e-002 9.3430656487375807e-002
      7.0690395779191995e-001 -8.5972829626344616e-002
      4.7011615820645242e-001 6.3675880221127175e-003
      -1.3462324204813042e-001 -3.3039852813855308e-001
      -2.0348261239544549e-001 5.9079716634192625e-001
      9.0346889881762663e-002 6.4804218971893632e-002
      -5.3410533814433037e-001 -2.2276302691674804e-001
      -5.8395972839851962e-001 2.0549443805714138e-001
      3.3758854574547914e-001 -1.0530257483583916e+000
      -6.1938247282568193e-001 -2.7803680314659263e-001
      1.2194576516000601e-001 -1.0518065789750446e-001
      -1.0383871108432370e-002 -5.0471124416896807e-001
      4.5556480068960209e-002 4.6967860720335458e-001
      -2.5818205102241548e-001 1.3729401651898740e-001
      5.3869949956971794e-002 4.0337543385503372e-001
      5.0525997894834318e-001 -2.5575255809568365e-002
      -5.2916628832987223e-001 -2.3235225605617918e-001
      -3.3277305726854595e-001 2.8049395074806138e-001
      4.3570933762168457e-001 3.1474064072292318e-001
      -4.7281103368900002e-001 4.3493905090022114e-002
      4.3512995751024397e-001 2.1008652112323948e-002
      -1.2541475922057835e-001 4.5429182915376015e-001
      -4.7177299064493239e-001 1.0546486013525980e+000
      2.9270516437213101e-001 1.2330249117330513e-001
      7.4266359840850960e-001 8.5564325832347531e-003
      1.5217924913830410e+000 1.4789588222053043e-001
      -8.1243419748772860e-001 5.1046953349546266e-002
      -3.6280594468146340e-002 4.4910811344695101e-002
      -6.6022323888083012e-001 -1.1395337653820508e+000
      -3.1931924672085826e-001 -7.5071687812852206e-001
      3.5806174243455202e-001 -2.0363871612461337e-001
      7.4701611526329259e-001 -1.6396051602249204e-001
      -3.6534891474528430e-001 1.2934712855437382e+000
      -1.1788828783492725e-003 2.9667384826234114e-002
      8.0828605950409999e-002 8.5968211835566488e-001
      1.0970230246440955e+000 -5.1254844942081612e-001
      4.7281023488018070e-001 -4.7179632421650151e-002
      -5.7854026619518983e-001 4.7678998530096683e-001
      -1.3730826397152207e-001 -2.7975832080025204e-001
      -6.5982582376315335e-001 -9.1665652433236888e-001
      8.0115071829233764e-001 -6.4023063031291116e-001
      -1.0618759248610773e-001 7.0449596955625737e-001
      1.9278386185455007e-002 -2.9104131789141635e-001
      1.1529468874357403e+000 -5.4317775775312882e-001
      3.4954367010000609e-001 -1.4353517341557373e-001
      4.5495874426059207e-001 -1.3100022047503987e+000
      1.3841650087099217e-001 -4.4476935091233599e-001
      -8.8735917609235271e-002 3.5250371422997406e-001
      -6.4876906617143917e-002 -7.8171341928045490e-001
      7.9948359138951397e-001 -9.6300448767067115e-001
      2.2463890543647222e-001 1.1841865867409533e+000
      -2.0881782555634314e-002 1.2678678141954342e-001
      -1.2371716002800113e+000 1.4089600478825545e-001
      4.0037307767134864e-002 -1.4510746175061056e+000
      6.8817583245236358e-001 9.0906589043575070e-001
      2.5492967651505576e+000 -2.2892134663799241e-001
      3.9600242242819589e-001 1.7635324271453570e-001
      5.4399645671662700e-001 5.9050309545799162e-001
      -8.4005089423884816e-001 -8.9404570356270241e-001
      -8.1177893525843259e-002 -3.3405735060470504e-001
      1.7102016405681064e-001 7.3168365778331412e-001
      6.6910910751649766e-001 1.4018886296914010e+000
      -8.6130891734583048e-001 -2.7466484491343374e-001
      1.0851494711383307e+000 -9.3833196421536313e-001
      4.1979814010289523e-001 5.2509801746212970e-001
      -4.1434762382551471e-001 -2.9065343944019378e-001
      -7.4951225665530016e-002 -4.0856193349858344e-001
      1.2466178151632749e-001 3.0088822142506833e-001
      -1.5476450969252067e-001 2.0214919371000728e+000
      1.3184737160032316e+000 -1.0527284122362208e+000
      -1.5011379008207488e+000 -2.3917928539614555e-001
      1.1265302915046031e-001 8.3270091103022958e-001
      -9.1971483076391347e-001 -1.3749809452517689e+000
      -5.2100933032475083e-001 -8.2570109831813043e-001
      1.4796123828020868e+000 1.6809720232311409e+000
      -1.8530666197938765e+000 1.0311242113793220e+000
      6.9203902923332306e-001 -6.0707794027763273e-001
      -4.4931168150150841e-001 -4.9992852036564964e-002
      1.7601665685628274e+000 -8.4849389350275628e-001
      1.0799340913914799e+000 -8.6228948813937201e-001
      -4.9507405110317310e-001 -1.0564420088429323e-001
      -5.2214139260165060e-001 1.0521492008564010e-001
      1.0082367931692982e+000 -1.5255210856531334e-001
      -1.0144389815676544e+000 -7.0887933954085713e-001
      -1.6797250621443003e+000 -8.6725571482736763e-001
      1.4485076304933975e+000 -9.3922008772448218e-001
      -3.1638491654630452e-001 7.0130241531874998e-002
      -3.6866773287126023e-002 5.9692347357966735e-001
      -1.7276118365809974e+000 2.5430345062935905e-001
      9.3222019745436979e-002 9.1519529528271504e-001
      -8.5581256978554995e-002 -4.3448596221087515e-001
      6.1231639738644084e-001 1.7921897890162689e-001
      -1.1021654536560153e+000 1.6660675112187551e-001
      -1.3934505211411330e+000 6.9782499484444460e-001
      8.3459498295527346e-001 1.2007303659604329e+000
      -1.8431632787332830e+000 9.5132751336678634e-001
      6.9821954439300171e-002 3.2706202559668529e-001
      -5.3820396551632321e-001 8.4373671590452404e-001
      1.4475772081286178e+000 5.9642617799752572e-002
      -5.5191593983200926e-001 4.5308143089270413e-002
      -7.7466117762210407e-001 -9.6591094662895971e-001
      -4.7646188631479225e-001 -1.6631861795186627e+000
      8.6080151845400343e-001 6.1056907174515451e-001
      9.3198100101190084e-001 -2.2805567615523170e-001
      1.6593688627014325e-001 -1.2430580048616005e+000
      -1.3243111747381153e-001 8.0872891142675471e-002
      -1.0759336552474763e+000 2.6926406433711958e-001
      -1.2465831787034099e-002 -8.4564338891504642e-001
      6.9006536019931186e-001 8.3842715998554362e-001
      3.4898359308049814e-001 -9.7835766941633595e-001
      1.0420682460629689e-001 -2.9714575331786314e-001
      1.0087664390604114e+000 5.4515357147591814e-001
      -8.0176039779753594e-001 -2.4936484820518531e-001
      -3.6613392444237864e+000 -2.2213367954621516e-001
      1.3332357086663176e+000 1.7373547513420351e+000
      -6.0533199135823543e-002 6.4050649950742403e-002
      -1.7307539844289135e+000 -1.1024267659568856e+000
      1.2000244025267919e+000 4.6903328540615119e-001
      -1.5667352990817494e+000 6.5762430987362652e-001
      -8.6842498558071146e-001 1.3371984936074668e+000
      -1.5645778871481966e-001 -1.7999719954856250e-002
      2.2925608626456384e+000 4.0031390615419393e-001
      -1.1676530533077984e+000 9.0884435934075358e-001
      9.4954163360340349e-001 1.5797851733522028e-001
      1.4438948297120364e+000 2.2358626782969068e-001
      4.3380189847646677e-001 8.3561512707479513e-001
      -7.2933244753493187e-001 -5.3617367595339471e-001
      -4.9640612998967257e-002 -5.7974635832334132e-001
      6.9987430833701181e-001 -1.7119164467859438e-001
      -7.1356220931659020e-001 -1.4132200617488533e+000
      -3.9092224807957077e-001 -5.2367825737338525e-001
      1.6003511308324718e+000 2.7155440158500882e-001
      -1.2858696748679693e-001 1.5532139033290890e-001
      -3.5101090095353831e+000 -2.5966313534706487e-001
      2.9368636904885970e-001 1.0818302590672138e+000
      -3.3056597185849845e-001 3.4144425419119523e-001
      -1.8823017144346206e+000 -6.0896738113485605e-001
      1.1586919192638054e+000 -9.3813682488405348e-001
      3.1565089210319169e-001 2.4628811792324068e-001
      -1.7028246552209414e+000 5.8278799335379583e-001
      1.8451667950245956e-001 -2.7907121174249949e-001
      6.9929622294807570e-001 1.1181393304998974e+000
      -6.1738700527816714e-001 4.3569402737402080e-001
      -3.8914455326053815e-001 1.3218937635690020e+000
      1.0716136229997242e+000 -3.4119497368302026e-001
      -1.6393270976151231e-001 5.2333355095377521e-001
      -8.1292499721141476e-001 -1.7606371892778876e+000
      -1.5158832118551548e+000 -2.1073122106887709e-001
      3.9662394842849846e-001 -1.1264985318008425e+000
      3.4909377490768523e-001 -6.7083740306354367e-001
      -7.0075356488888518e-002 -4.3798150242147449e-002
      6.0330290258312658e-001 -5.1258691255524635e-001
      6.3266101017139831e-001 5.5006539978733038e-001
      -1.2474496076654682e+000 -5.2590583981658216e-002
      -4.9378860141191716e-001 4.9176036961463387e-001
      1.4138295621849556e-001 2.3800966244764354e-001
      2.7795192812815256e-002 -7.9376598062823123e-001
      5.2103916310437504e-001 -2.8394704364886242e-001
      5.8326671105724204e-001 8.1534760870910727e-001
      -8.2403842562686236e-002 -1.4992941476464622e-001
      5.0360287253715696e-001 -1.7917831943285498e-001
      6.0359600025222004e-001 4.9363452975875355e-001
      -2.4105754412633135e-001 6.3066278222598826e-001
      -3.7450903576338795e-001 1.0335086463101069e+000
      7.8488395985203996e-001 -1.8167555756575873e-001
      -1.1304026290755317e-001 4.8099067400788210e-002
      1.5820025915705788e-001 -1.2324563054514206e+000
      5.5087076420033160e-002 1.2531234458612772e-001
      -6.3490205139192776e-002 -1.5635023944500673e-001
      1.5040794734732738e-001 -1.5646379896398652e-002
      -4.6341708320713715e-002 1.7459326272202383e-002
      5.5669012822163848e-002 1.1805336833705589e-001
      -8.8770889875213713e-002 -3.6233192550424301e-002
      7.8362342183654170e-003 -4.8664748796489517e-003
      4.7934581170313983e-001 1.9114489422165937e-001
      1.0439109504663552e-001 -1.3102178058116962e-001
      2.1862753105357466e-001 -1.3042715057587687e-001
      2.0996674399163287e-001 -3.7799152455263003e-002
      1.1089897951146120e-001 -5.0760774847043853e-002
      -1.5200122166398997e-001 -7.0402253806324044e-001
      1.2600843013091514e-001 1.6846143613136561e-001
      -6.4018029106799856e-001 4.5436477818789350e-001
      2.9630921687324824e-001 -2.3214886317207428e-002
      4.6185246274490627e-001 8.3655298173769002e-002
      6.8252743126844373e-001 -4.7684839969948004e-002
      3.0424791299254197e-002 4.6127342046719658e-002
      4.3703657677909935e-001 -1.5380413242198171e-001
      6.3829072059014857e-001 8.8623012084046549e-002
      8.4299543953601597e-001 -3.4776307503723140e-003
      -6.7931848485091739e-001 4.8013149744284922e-001
      8.4184155105032368e-002 -1.6684255034151346e-001
      4.5350551221140900e-001 2.5853077010613768e-001
      4.4982443090166031e-002 -1.4351673933062747e-002
      2.4475735932446727e-001 3.7870222826280092e-001
      7.0820429957591358e-001 3.8675280802529016e-001
      5.4712363517661555e-001 1.6583906967638914e-001
      -8.1589577360277790e-002 7.7492403813522917e-002
      2.0723908057327653e-001 -1.0887732674937485e-001
      6.2017876159040142e-001 2.2847210790717429e-001
      -7.5964981806827481e-001 2.8402880916090205e+000
      4.8503593620949903e-001 5.2650995641876065e-002
      -1.2355900277044352e-001 6.2449585640254976e-002
      1.2680251785396252e-001 1.0525678049743767e-001
      1.6522009611654556e-001 1.9827824285497550e-002
      -2.4661399557879909e-001 3.7795588614399928e-001
      1.7362407736988944e-001 -1.5505141102024633e+000
      -3.4989232203369341e-001 -6.8422100013706244e-002
      -1.8490531277216751e-001 -7.5801658222299173e-002
      3.3297893575292242e-001 -1.2513842012191045e-001
      2.9331012764611591e-001 -2.4017720795565364e-001
      6.9832988146164654e-001 -1.9376108922450452e-001
      -5.4308595144233973e-001 4.5399655395061916e-001
      -4.2827094479850442e-001 3.7553096813583442e-001
      2.2695881155823375e-001 -3.0506339529423077e-001
      -5.6675748343157784e-001 5.4815814104887017e-001
      1.8075244080521730e-001 4.6880984139346438e-001
      1.9247535033725966e-002 3.5884924100643983e-001
      -3.5096569415823918e-002 1.0661464676624541e-001
      -4.5334385690487533e-001 -4.0429466671453140e-001
      1.3547203817186707e-001 -4.5431979788077809e-001
      -4.2957763159100421e-001 -1.2210414334874019e-001
      -5.4266972079209101e-002 -1.6150706665244419e-001
      -1.6449840952139284e-002 9.9640005570387458e-001
      -2.2966981225621180e-001 -8.2327201272163331e-001
      2.4260594450230433e-001 -4.8914679589878281e-002
      -9.0130310015919413e-001 3.7007659923123909e-001
      -8.6387895369941972e-002 2.0330086600585640e-001
      -5.4034337593909609e-001 -6.7880404794769400e-001
      -2.4098728343845569e-001 -1.2978575503101915e+000
      4.8704860665769317e-001 -8.7470676957980664e-001
      2.4595983100983107e-001 -3.6765867379398603e-002
      -1.0304082045648613e+000 1.8396083857330936e+000
      -1.3743252462756164e+000 1.5709147693909911e+000
      1.1946897368844147e+000 -5.7720549914939845e-001
      -2.5094713042309680e-001 -3.7012851423416676e-002
      9.8735300646521462e-001 1.5394202042725813e+000
      -1.6319216645526879e-001 1.2074072996048917e+000
      -3.9421092464184798e-001 5.2799077352082169e-001
      -6.7487877358253978e-001 -1.5262687890153295e-001
      -2.2989085031494150e-001 -2.9399358450991059e-001
      -8.0834456352707040e-001 -1.2252248077014838e+000
      -6.2177419770251152e-001 6.1436495949893521e-001
      3.9819104345665318e-001 -7.4458819042773206e-001
      -5.5868381918118071e-001 -1.1097878742403913e+000
      -5.8819727347340429e-002 1.1183233046502656e+000
      -1.6719063343625846e+000 -1.5007636485825937e+000
      1.1888054861166450e+000 -3.7777150177451957e-001
      3.0120270094166174e-001 -1.3207227543927600e+000
      1.8682120053580872e-001 -9.4353582949290093e-001
      1.2892271924269871e+000 6.3211478808906973e-001
      -4.0555411706555390e-002 1.5063576467027007e-001
      -1.5506429927351950e+000 3.8313942498079823e-001
      -1.9019731472638877e+000 2.9020827967598339e-001
      9.3475765524524435e-001 -1.7392039031646767e+000
      1.2453907974385379e+000 -3.0235433765073427e-001
      9.7359988014009269e-001 -4.6231747891680282e-002
      -3.1869456745105010e-002 -1.2216182516471939e-001
      -3.3132259992628732e-001 7.0081728478032901e-001
      2.2807534747415026e-001 -1.8332888822651860e-001
      5.2915641755373455e-001 -3.0892978713157793e-001
      5.3126132847783780e-002 -1.0811892089921522e-001
      8.0928192652386521e-001 5.3520202127224759e-001
      -5.5143183924822547e-001 -8.7112131401133475e-001
      -9.1100951255187346e-001 -1.2191184289073860e+000
      -6.5337462482167497e-001 1.0322984331250737e+000
      -2.0353652529825648e+000 -1.0358422390792243e+000
      -1.7670363180544046e-001 -1.0201591418243128e-001
      7.4780777235984630e-001 1.3406186363215165e+000
      -2.3095369480142671e+000 2.2669858398279899e-001
      -1.0915829926260703e+000 3.8341520094641229e-001
      -6.0436724755981797e-001 1.6907867392926910e+000
      -5.6575738778608331e-001 1.5088371647588464e-001
      -2.6262755705693169e-001 -1.8892164109793191e-001
      -7.4816316599516264e-001 -5.7546177535741827e-001
      1.6991717016720398e+000 -3.0753058205719436e-001
      -1.5019925126464333e+000 -3.3325728348255512e-001
      1.8496112979160220e-002 -2.2601378425208143e+000
      -3.2610114289058489e-001 -9.6463181249851027e-001
      1.6882353656265074e+000 -4.0723252334591981e-001
      2.1724467929814031e+000 4.6573243242009559e-002
      7.4638671033121506e-001 -2.8338467992328609e-001
      1.5966884757149395e+000 9.7495398669572819e-001
      -7.7888491248522473e-001 -2.2511036308918220e-001
      -1.2410346750855664e-001 2.7609282110178263e-001
      9.1439189926628320e-002 -2.7060166455391843e-001
      1.0767185074736103e+000 -7.6550853121693141e-001
      -4.3605984296489575e-001 1.7832969964984599e-001
      2.0089427191983983e-001 -1.4800177931985561e-001
      -2.4344076310557337e+000 7.0793888900980517e-001
      1.2466053228495247e-002 8.3713094220974815e-001
      2.7019556135207096e-001 -9.5968374899480691e-001
      -5.0285211380413875e-001 -1.2086558047132767e+000
      3.2570485680866186e-002 -5.7152490332095462e-001
      6.7508627861590009e-001 4.9109696211661241e-001
      5.4636009039415526e-002 -9.3313454352517589e-001
      -7.3256758529008470e-001 5.9157367893738655e-001
      -2.3694305254029131e+000 -1.8301075964742188e+000
      -4.4867204886777678e-001 1.1494788150111941e+000
      1.8017447375020954e+000 -7.1846028090857117e-001
      1.6976890150701058e+000 -6.3954485636981709e-002
      -5.8799962185400734e-001 -5.6926996077350800e-001
      1.4647913009114775e+000 1.3341768885889471e-001
      -1.1971016381157662e-001 3.0381662494101580e-001
      1.0049988802378014e+000 1.4484117305838788e+000
      7.2672660574346826e-001 1.4537879796795530e-001
      -1.0283398167139135e+000 -2.6480824368551148e-002
      6.2307594093506702e-001 3.2963580974345591e-001
      -5.5148357788069990e-001 -1.5873922283035953e+000
      -6.5046117849837060e-001 4.0392120034929546e-001
      -1.3402002583416754e+000 1.5799042761211496e-001
      -9.6287462283792563e-002 -4.0778109326084394e-001
      1.6419909041620537e+000 -1.0741687554771304e+000
      2.1123389797607923e+000 5.2278923466238185e-002
      7.0189715995415869e-001 1.1255917392817185e+000
      -1.1275862068730258e+000 1.0591410235676293e-001
      7.4860705456935972e-001 1.0544886720912954e+000
      -4.1447145134313984e-001 1.0931931386262805e+000
      -2.9991413914811704e-002 1.2597782848721308e+000
      8.6195193517001711e-001 -9.6679416441310534e-002
      -4.9847997729845278e-001 6.0355212820093320e-003
      -5.3872246335102292e-001 7.0832438121331040e-002
      6.9189378890802689e-001 4.7377084891514532e-001
      -5.6948901227504733e-001 -1.2323341764013490e-001
      -1.7008950229570538e-001 2.6971726606340805e-002
      9.0844573695219799e-001 1.9805712560820718e-001
      -3.3521564175251042e+000 1.4077185661298690e+000
      4.7288792773358967e-001 -1.0231400488156062e+000
      -5.1489861861913566e-001 -7.0936505839065911e-001
      -6.3425731583447531e-001 6.7943524634762087e-001
      -3.6497192258372485e-001 -1.4612704485417960e+000
      -1.5062716081502547e-001 -3.3444738532368634e-001
      2.2151069576600899e+000 -2.5407711723994281e-001
      1.5144076619287739e+000 3.9425088494266958e-001
      -1.0537627604606006e-001 1.0103123881868170e+000
      -2.2286348953785282e+000 -9.2427542884653324e-002
      1.8210746884980439e-001 1.5093814186161392e+000
      7.0929788196947130e-001 1.0097484494696165e+000
      -2.5187636524287921e-001 -3.3612872817856376e-001
      -2.6967906489449395e-001 1.5683251572796406e-001
      -1.5809007450086321e-001 3.4972599907947938e-001
      1.8176285817055132e-002 1.3482558719084162e-001
      -2.3686064601564125e-002 1.8126114700304846e-001
      -5.0196048722111042e-001 2.7692811504378639e-001
      -4.2784421002434453e-001 -5.0891122302708980e-001
      1.6072885924991662e+000 6.3545037861335940e-001
      -1.9691145103198640e+000 3.8634167543751335e-001
      -2.8678590140734894e-001 -8.7696912702384722e-001
      -1.8986691927325744e-001 -1.9924666110013178e-001
      -3.9640822628739775e-001 2.9134711451737483e-001
      -5.6294105843239539e-001 -7.9530821354118830e-001
      2.8170027981170354e-001 -1.5525412125636534e-001
      3.5792727341142089e-001 2.8746925651676947e-001
      8.4882009246050594e-001 1.0004265175427591e+000
      2.9044289272674056e-001 2.1660722875581370e-001
      -1.0336191735201081e+000 6.1953192070190743e-001
      7.7993453458277295e-001 3.6117036092067800e-001
      -5.7919359756100053e-001 7.9911922711368022e-001
      1.4204077889236696e-001 -6.7571724305304304e-001
      7.4207551529707250e-001 9.0784740440148204e-001
      -5.9140170238804224e-001 -2.2667486641369586e-001
      6.4645155628470619e-001 -8.3885441261477511e-001
      -5.8022852270365866e-001 9.3710683096479577e-002
      -1.0173771852580775e+000 7.8325343883492848e-001
      -5.6783822011323581e-001 -5.2947742559314281e-001
      2.4852515540693390e-001 1.2838368156277596e-001
      -3.1770779294417290e-001 -6.1397155563242845e-001
      4.1432494983491436e-001 -1.5155183925683058e-001
      8.7460577090479261e-002 8.2427286384836956e-002
      -4.8689960067618943e-001 -3.6958320181382315e-002
      -5.2243251946498724e-002 -1.4829082444533889e-001
      -4.2461231367992833e-002 3.5398706089704961e-002
      6.1000039367628121e-002 1.0005415085921110e-001
      3.9359932400105677e+000 -3.7949617436941085e-002
      -7.0796692003051484e-002 -1.4114902991975486e-002
      3.7149801882030370e-001 1.7911432496898810e-001
      -2.0371626120746142e-001 -1.1800951896302433e-001
      -1.3651419687816549e-001 9.4249006208600217e-002
      1.5613709320118660e-001 1.3749686424405889e+000
      1.0530935453014063e-001 -6.5195379849802199e-002
      4.0132245883147233e-002 1.4712844161614450e-001
      5.0607623871624319e-002 4.6403927110551205e-002
      -7.3921798244279702e-001 3.0478896839528630e-001
      -3.8877239915151957e-001 -9.4521221653320719e-002
      1.9425263922767777e-001 -8.5180238039520476e-002
      2.3065037013531323e-001 -9.3313772982577897e-002
      8.0895499552749078e-002 -1.5625630718472461e-001
      1.7999213567589284e-001 -1.3059518037746837e-001
      4.9729229361889904e-001 -1.2176379155491299e+000
      3.1900018112650425e-001 -4.8692376297378770e-001
      -7.0979686378020646e-001 3.3378828241303860e-001
      1.1674981877386182e-002 -5.7599742264823472e-001
      -1.2830582519132759e-002 -1.0095385141668493e-001
      1.1188192874459093e+000 3.6401919126637899e-001
      1.4098617051443149e-001 3.7005150542849863e-001
      3.9164733651715361e-001 -2.5369272077317095e-001
      6.8118178055849399e-001 -9.2623568321411789e-002
      1.6986872285602778e-001 -1.8186487683817305e+000
      5.3122323202559218e-002 1.3370145844299928e+000
      2.4800322905079902e-001 3.6227804768087346e-001
      -9.4023679848788266e-001 1.8765652212328670e+000
      2.3998987538921651e-001 5.5690240161409277e-002
      -5.8355848272360167e-001 -2.2036002155979550e-001
      2.3860703334796080e-001 5.2427019001579735e-002
      1.4680986504549881e-002 2.0863962473268219e-001
      3.6586624586254335e-001 8.0866628662664655e-002
      5.8341039571278668e-002 -2.7538134728575439e+000
      -4.8176415709149945e-001 -7.7669036965969984e-001
      -3.1022988253672390e-004 -7.0575892025140097e-001
      1.7016181529770491e-001 2.0724890888640424e-002
      -1.1651117247967191e-001 9.7709454184625710e-001
      1.1208882533551048e+000 -9.0782383378196574e-001
      -3.6661760749499411e-001 1.0100734155829041e+000
      -7.3091902975675235e-002 -9.5752286355472033e-002
      1.2227581282242681e+000 -2.6880316082930962e-002
      -2.1597628519215897e-001 -2.2278222833677516e-001
      2.6532811309799381e-001 6.9906820194527308e-001
      -4.6457293070883876e-001 1.0824572410063684e+000
      -4.5516348033204361e-002 8.3397369967631307e-001
      -1.5536537720324425e-001 -2.1570248294063826e-001
      -2.2028161582829708e-001 7.3722493400699848e-002
      3.2124962251224004e-001 -5.2431420420869579e-001
      4.8251151539969162e-001 2.2459167131005137e-001
      1.2830397636831350e-001 1.4109607208626673e+000
      3.5540162372061995e-001 7.4575778838956974e-001
      -2.4338314848119366e-001 -8.9209372282449961e-002
      5.2498252264827228e-001 3.2799018645313632e-001
      -8.1712400911118338e-002 -9.4422721905503215e-001
      6.6109335931010327e-001 -2.6927397146550086e-001
      -3.0552639263996995e-001 -6.7656676856745079e-001
      2.9369589610569180e-001 9.6626501445550506e-001
      -5.4128274181016803e-002 -4.5862598479956002e-001
      9.2954851333972832e-001 1.6435454312454192e+000
      -5.9098498636137964e-001 5.3119722584355467e-001
      1.0411604147732449e+000 2.9684643547007866e-001
      -7.4922347556964097e-001 -2.1246794179256853e-001
      1.4348996816302841e+000 1.3687504339218743e+000
      -9.8174117904466063e-001 1.3676043452851236e+000
      1.7362500542207115e-001 7.6907195561889563e-001
      -7.0350361185432336e-002 9.5613684025336473e-002
      5.6437487776418183e-001 1.5278725433956367e-001
      3.0995118361685869e-001 -1.0755970243827338e-001
      7.2592858053017140e-001 3.9012975797545667e-002
      -4.5720438067094260e-001 3.6565741230090920e-001
      -1.1140197628642603e+000 -2.0665383477749338e-001
      -5.7816047046703511e-001 3.3531850013787806e-001
      5.2742287491102058e-001 3.9867746496200995e-001
      2.8084929550261684e-001 -4.7892832491024545e-001
      2.9561124630072472e-001 1.1643084617409916e+000
      -9.4037498077380322e-001 -1.0989942678132847e+000
      -3.6376734124604443e-001 9.5056402196265233e-001
      -8.4919797654818707e-001 1.4558789157445193e-001
      1.7365699450412631e+000 -3.6378096118663894e-001
      6.2071211539798665e-001 -1.3370081715888890e-001
      -2.8633034346352570e-001 -3.5029658022266857e-001
      -1.8876711883837818e-001 3.6173865071739658e-001
      -3.4847512538770897e-001 2.3142524950737529e+000
      -3.5762781438035568e-001 5.3851110837086580e-001
      9.9729759655100869e-001 5.8834048069008560e-001
      7.0096404705690185e-001 -9.3579850892556680e-003
      -9.5468391942059438e-001 -9.7148617867653297e-001
      1.1084718602906187e+000 5.6482964044532347e-001
      1.2202718044631449e+000 8.9633557361221605e-001
      1.5836070453797849e-001 -1.1370120427278314e+000
      -6.3551777657345238e-002 -4.2919416472819633e-001
      -6.3340382603176970e-001 4.5579829750236844e-001
      -8.2028051007461722e-001 3.3458759225250079e-001
      -8.7886818592501059e-001 -1.0266127424195872e+000
      3.2390919784948881e-002 -4.4083449184704282e-001
      -5.4829178961006242e-001 3.0800441295427794e-001
      -1.8165716904025331e+000 1.1921660633107645e+000
      -6.7042936681523269e-001 1.5532525515832192e+000
      1.6187119692617742e+000 -1.2091041817640609e+000
      5.3865877359027481e-001 -9.7073835924664578e-002
      4.7695924781557536e-001 -2.8452042190393510e-002
      -1.9860720750438854e-001 -5.7041684815033877e-001
      -1.1631409612336370e+000 -2.1924433664215885e+000
      5.7654268677563902e-001 -1.1489361873453450e+000
      2.9812486469668387e-001 8.1061184444070244e-001
      1.0040269492707303e+000 5.8537883198445428e-001
      -1.2078065779249623e+000 5.2164090573587021e-002
      1.6643267862448705e+000 5.3747904709800076e-001
      1.5178949277351315e+000 2.3070589673560349e+000
      3.8243998395205481e-001 -7.1733311724547066e-001
      5.2571920685276108e-001 1.8073768218714104e-001
      -9.2435573195392751e-002 6.9997000151475552e-001
      -5.3580996696981277e-002 -1.0834436131455187e+000
      -1.1444397267514810e-001 -7.6114789247357229e-001
      -4.9980597243299674e-001 -1.8021501715950705e-001
      -7.2724099566570899e-001 1.4278451544660280e+000
      9.1313483770741499e-001 7.8513068457822499e-001
      -1.2164390207415680e-001 9.3970304981354807e-002
      8.0804098399928548e-001 -1.8733157940964156e+000
      7.2406241801496196e-001 -4.2294721592935519e-001
      -3.7912405827924112e-001 2.3737145778930147e-001
      -3.3629292689189055e-001 -1.4868536476009575e-001
      2.3069182422180146e-002 -2.0263584868596309e+000
      -3.4523771868781628e-001 -9.3086561650319499e-001
      -9.6443396708183929e-002 7.2828453699661710e-001
      -2.6575994343498605e-001 4.1609267119924756e-002
      5.8417332031457048e-002 -6.9232308655885999e-001
      9.2562700276334342e-001 4.9491699264744915e-001
      7.3836143421981859e-001 5.9847616077558552e-001
      2.3297016152373040e-001 -6.4102350594577717e-001
      8.5250737596464521e-001 -9.9323722264413689e-002
      -2.5594794698311579e-001 1.0347386120482216e+000
      -6.0040881841706772e-001 -6.9377628022015603e-001
      4.0222082437130163e-001 4.1932511865812527e-001
      -2.7436969997181579e-002 -9.5483938039248917e-001
      -6.9192192082217052e-001 7.0202615253871326e-001
      5.8138468049198511e-001 -8.3598305388580896e-001
      3.9664669265114177e-001 1.0603371569999029e+000
      2.9888735761825791e-001 -1.4139599055528533e+000
      -1.0984620268330751e+000 -3.0733474518738213e-001
      -1.9041010249895110e-001 9.8369588870219327e-001
      -1.1442884917950749e-002 -2.3094582798943339e-001
      4.7181006932346614e-001 1.4128895555754508e+000
      -2.7154222716338278e-001 -2.9809306407354630e-001
